{"learner":{"attributes":{"best_iteration":"33","best_score":"2.0355397473923715","scikit_learn":"{\"_estimator_type\": \"regressor\"}"},"feature_names":["date_block_num","shop_id","item_id","item_category_id","item_category_type","category_sub_type","city","shop_type","item_cnt_month_lag_1","item_cnt_month_lag_2","item_cnt_month_lag_3","item_cnt_month_lag_6","item_cnt_month_lag_12","date_block_item_cnt_mean_lag_1","date_block_item_cnt_mean_lag_2","date_block_item_cnt_mean_lag_3","date_block_item_cnt_mean_lag_6","date_block_item_cnt_mean_lag_12","date_block_num_item_id_item_cnt_mean_lag_1","date_block_num_item_id_item_cnt_mean_lag_2","date_block_num_item_id_item_cnt_mean_lag_3","date_block_num_item_id_item_cnt_mean_lag_6","date_block_num_item_id_item_cnt_mean_lag_12","date_block_num_shop_id_item_cnt_mean_lag_1","date_block_num_shop_id_item_cnt_mean_lag_2","date_block_num_shop_id_item_cnt_mean_lag_3","date_block_num_shop_id_item_cnt_mean_lag_6","date_block_num_shop_id_item_cnt_mean_lag_12","date_block_num_item_category_id_item_cnt_mean_lag_1","date_block_num_item_category_id_item_cnt_mean_lag_2","date_block_num_item_category_id_item_cnt_mean_lag_3","date_block_num_item_category_id_item_cnt_mean_lag_6","date_block_num_item_category_id_item_cnt_mean_lag_12","date_shop_category_item_cnt_mean_lag_1","date_shop_category_item_cnt_mean_lag_2","date_shop_category_item_cnt_mean_lag_3","date_shop_category_item_cnt_mean_lag_6","date_shop_category_item_cnt_mean_lag_12","date_shop_category_sub_type_item_cnt_mean_lag_1","date_shop_category_sub_type_item_cnt_mean_lag_2","date_shop_category_sub_type_item_cnt_mean_lag_3","date_shop_category_sub_type_item_cnt_mean_lag_6","date_shop_category_sub_type_item_cnt_mean_lag_12","date_block_num_city_item_id_item_cnt_mean_lag_1","date_block_num_city_item_id_item_cnt_mean_lag_2","date_block_num_city_item_id_item_cnt_mean_lag_3","date_block_num_city_item_id_item_cnt_mean_lag_6","date_block_num_city_item_id_item_cnt_mean_lag_12","date_item_id_price_mean_lag_1","date_item_id_price_mean_lag_2","date_item_id_price_mean_lag_3","date_item_id_price_mean_lag_6","date_item_id_price_mean_lag_12","nearest_delta_price_lag","delta_revenue_lag_1","delta_revenue_lag_2","delta_revenue_lag_3","delta_revenue_lag_6","delta_revenue_lag_12","month","sezon"],"feature_types":["int","int","int","int","float","float","float","float","float","float","float","float","float","float","float","float","float","float","float","float","float","float","float","float","float","float","float","float","float","float","float","float","float","float","float","float","float","float","float","float","float","float","float","float","float","float","float","float","float","float","float","float","float","float","float","float","float","float","float","int","int"],"gradient_booster":{"model":{"gbtree_model_param":{"num_parallel_tree":"1","num_trees":"44"},"iteration_indptr":[0,1,2,3,4,5,6,7,8,9,10,11,12,13,14,15,16,17,18,19,20,21,22,23,24,25,26,27,28,29,30,31,32,33,34,35,36,37,38,39,40,41,42,43,44],"tree_info":[0,0,0,0,0,0,0,0,0,0,0,0,0,0,0,0,0,0,0,0,0,0,0,0,0,0,0,0,0,0,0,0,0,0,0,0,0,0,0,0,0,0,0,0],"trees":[{"base_weights":[-7.4562384E-4,-4.5355342E-2,9.5367E0,-1.0346754E-1,1.1244937E0,4.7764835E0,3.8203938E1,3.3994114E-1,-1.639909E-1,5.1778E-1,2.13014E0,4.068966E0,1.3833426E1,1.587965E1,9.426057E1,6.943641E-1,-5.710933E-2,-2.3203656E-1,1.5071762E-1,1.4199784E-1,8.6219263E-1,1.6720352E0,3.573841E0,2.9655735E0,6.1463003E0,2.3564866E0,1.0190701E1,7.8414006E0,2.1437601E1,6.656537E0,1.2858642E1,3.8471454E-1,1.2004269E0,-1.0240394E-1,6.10072E-1,-2.6823857E-1,-6.441434E-2,8.33286E-2,1.2875452E0,1.21731944E-1,3.002433E-1,7.2319776E-1,1.7186034E0,1.3662941E0,3.091687E0,3.030058E0,5.9313464E0,2.2222044E0,5.925745E0,4.548027E0,8.341108E0,6.553167E0,1.698676E0,6.003994E-1,1.0851774E0,1.6653055E1,3.647195E0,2.6035237E-1,2.1119993E0,1.6571736E-1,7.3643255E-1,-7.482633E-2,-2.856669E-1,7.249335E-1,-2.3706372E-1,-2.977051E-1,-2.2019634E-1,-1.6028966E-1,4.747485E-2,-2.7018437E-2,4.2168897E-1,8.765556E0,1.162744E0,-8.533943E-2,3.2365683E-1,6.2468314E-1,1.5658318E0,1.3483009E0,2.699147E0,1.1041034E0,2.0258734E0,2.3189876E0,4.0021133E0,2.6636193E0,4.4155345E0,4.889026E0,9.976205E0,1.6294277E0,2.8581712E0,5.440937E0,8.5991615E-1,4.1547723E0,8.765065E-1,7.182038E0,1.125526E1,9.765622E-1,2.8116748E-1,1.2563446E1,2.4338474E0,2.2949921E-2,3.2993057E-1,1.5965265E0,3.3942893E0,5.073913E-1,2.0318437E0,-9.346629E-2,3.85045E-2,5.0005536E-3,-2.90459E-1,4.5368066E-1,1.0189204E0,-2.7209356E-1,-1.7593868E-1,-3.189067E-1,-2.7823165E-1,-2.506879E-1,-1.474898E-1,-2.4779032E-1,-1.0923403E-1,-1.9145768E-2,1.8328859E-1,4.0204978E-1,-6.7254506E-2,2.1458629E-1,8.153617E-1,1.667565E0,2.3759738E-1,1.0038278E0,2.75658E0,-2.3842196E-1,2.7197186E-2,1.7211658E-1,5.5374485E-1,5.42906E-1,1.1595103E0,1.3135568E0,2.6349108E0,9.2610663E-1,1.6390516E0,2.4610856E0,4.367991E-1,1.0506299E0,3.541781E0,1.6286443E0,2.7657883E0,1.74255E0,2.735975E0,3.567343E0,6.8001885E0,2.3818774E0,3.6064477E0,3.8409646E0,5.712137E0,3.892669E0,5.4470515E0,6.54823E-1,1.5571394E0,1.1267519E0,2.0730202E0,2.4829326E0,4.7855215E0,6.5525494E0,4.468256E0,3.4031527E0,5.32125E0,6.246442E0,9.533623E-1,8.397652E-1,1.4046177E0,1.0458913E0,1.5216898E0,-1.8126315E-2,3.3020444E-2,3.0853286E-2,6.197949E-2,2.0785132E-1,5.4613996E-2,2.8397888E-1,3.7983885E-1,8.028001E-3,7.3253356E-2,1.7319638E-1,2.9081783E-1,-1.7855668E-2,-7.832079E-3,8.77434E-3,-1.0430203E-2,-2.960118E-2,-2.5706425E-2,8.214291E-2,2.7734462E-2,1.3734111E-1,8.7585114E-2,-3.0026352E-2,-2.5653038E-2,-7.437454E-3,-2.4810996E-2,-3.2189395E-2,-3.049827E-2,-2.9119918E-2,-2.4065394E-2,-1.449616E-2,-2.6166666E-2,-1.639525E-2,-1.1962786E-3,-2.964063E-2,-2.0145833E-2,-1.4384109E-2,-1.3959367E-3,-4.2526326E-3,1.7101267E-2,1.2868059E-2,3.7612926E-2,2.4393274E-2,2.2639373E-1,-1.3607027E-2,7.0037427E-3,5.672595E-3,3.3915754E-2,5.8007833E-2,1.16449594E-1,8.436305E-2,1.6417861E-1,4.723138E-1,1.6143124E-1,-2.507675E-2,3.0881787E-2,-4.069902E-3,2.2640653E-2,1.2549308E-2,5.2891195E-2,3.940053E-2,1.02274634E-1,3.9345328E-2,7.492846E-2,8.929389E-2,1.4816192E-1,1.12515725E-1,1.8645656E-1,2.1193512E-1,4.083148E-1,6.827276E-2,1.06501244E-1,1.9655691E-1,1.213156E-1,2.905649E-1,1.773795E-1,8.05635E-2,1.339644E-1,5.686351E-1,1.0471982E-1,1.4022145E-1,1.9899699E-1,2.6183164E-1,4.257203E-1,1.6075963E-1,2.3614421E-1,4.0725848E-1,2.60003E-1,6.329482E-1,3.3498967E-1,5.0612813E-1,9.045852E-1,3.2796142E-1,2.168395E-1,3.274541E-1,5.524951E-1,3.580286E-1,5.174138E-1,4.74957E-1,6.155003E-1,3.2296404E-1,4.9706745E-1,4.440506E-1,6.0285497E-1,9.724772E-2,1.9188161E-1,3.1936187E-1,1.623678E-1,2.7649674E-1,9.064149E-2,6.488522E-1,3.5802826E-1,5.379428E-1,8.568878E-1,3.4119096E-1,5.5241555E-1,1.14603415E-1,3.7937483E-1,6.427521E-1,4.0500972E-1,5.438852E-1,8.7080765E-1],"categories":[],"categories_nodes":[],"categories_segments":[],"categories_sizes":[],"default_left":[0,0,0,0,0,0,0,0,0,0,0,0,0,0,0,0,0,0,0,0,0,0,0,0,0,0,0,0,0,0,0,0,0,0,0,0,0,0,0,0,0,0,0,0,0,0,0,0,0,0,0,0,0,0,0,0,0,0,0,0,0,0,0,0,0,0,0,0,0,0,0,0,0,0,0,0,0,0,0,0,0,0,0,0,0,0,0,0,0,0,0,0,0,0,0,0,0,0,0,0,0,0,0,0,0,0,0,0,0,0,0,0,0,0,0,0,0,0,0,0,0,0,0,0,0,0,0,0,0,0,0,0,0,0,0,0,0,0,0,0,0,0,0,0,0,0,0,0,0,0,0,0,0,0,0,0,0,0,0,0,0,0,0,0,0,0,0,0,0,0,0,0,0,0,0,0,0,0,0,0,0,0,0,0,0,0,0,0,0,0,0,0,0,0,0,0,0,0,0,0,0,0,0,0,0,0,0,0,0,0,0,0,0,0,0,0,0,0,0,0,0,0,0,0,0,0,0,0,0,0,0,0,0,0,0,0,0,0,0,0,0,0,0,0,0,0,0,0,0,0,0,0,0,0,0,0,0,0,0,0,0,0,0,0,0,0,0,0,0,0,0,0,0,0,0,0,0,0,0,0,0,0,0,0,0,0,0,0,0,0,0,0,0],"id":0,"left_children":[1,3,5,7,9,11,13,15,17,19,21,23,25,27,29,31,33,35,37,39,41,43,45,47,49,-1,51,53,55,-1,-1,57,59,61,63,65,67,69,71,73,-1,75,77,79,81,83,85,87,89,91,93,95,-1,-1,-1,97,-1,99,101,-1,103,105,107,109,111,113,115,117,119,121,123,125,127,129,131,133,135,137,139,141,143,145,147,149,151,153,155,157,159,161,-1,163,-1,165,167,-1,-1,169,-1,171,173,175,177,179,181,183,185,-1,187,189,191,193,195,197,199,201,203,205,207,209,211,213,215,217,219,-1,-1,221,223,225,227,229,231,233,235,237,239,241,243,245,-1,247,249,251,253,255,257,259,261,263,265,267,269,271,273,-1,-1,275,277,279,281,283,285,287,289,291,-1,-1,-1,-1,-1,-1,-1,-1,-1,-1,-1,-1,-1,-1,-1,-1,-1,-1,-1,-1,-1,-1,-1,-1,-1,-1,-1,-1,-1,-1,-1,-1,-1,-1,-1,-1,-1,-1,-1,-1,-1,-1,-1,-1,-1,-1,-1,-1,-1,-1,-1,-1,-1,-1,-1,-1,-1,-1,-1,-1,-1,-1,-1,-1,-1,-1,-1,-1,-1,-1,-1,-1,-1,-1,-1,-1,-1,-1,-1,-1,-1,-1,-1,-1,-1,-1,-1,-1,-1,-1,-1,-1,-1,-1,-1,-1,-1,-1,-1,-1,-1,-1,-1,-1,-1,-1,-1,-1,-1,-1,-1,-1,-1,-1,-1,-1,-1,-1,-1,-1,-1,-1,-1,-1,-1,-1,-1],"loss_changes":[2.1050388E6,3.3478744E5,3.143089E6,1.2590547E5,1.4219378E5,1.2653272E5,4.1031755E6,7.929325E4,8.840129E4,1.881284E4,5.799253E4,4.198475E4,5.0487312E4,1.04686875E5,8.793575E5,4.665211E4,8.031043E3,2.0596906E4,5.62229E4,4.0293708E3,9.027098E3,2.88915E4,2.7061125E4,2.6326812E4,2.2258281E4,0E0,2.567257E4,5.250414E3,9.916306E4,0E0,0E0,3.967508E4,2.3949625E4,1.2577004E3,1.6441113E3,3.9514688E3,6.467124E3,2.5867914E4,3.8318047E4,2.8862441E3,0E0,5.416035E3,3.8415664E3,9.470828E3,8.289039E3,8.703266E3,1.6638312E4,3.6027266E3,3.0664297E3,6.066375E3,8.9613125E3,8.1577383E3,0E0,0E0,0E0,3.2821812E4,0E0,2.8460176E3,8.194109E3,0E0,1.66333E4,4.569546E2,5.237378E1,1.18598E3,4.273079E0,7.142344E2,2.3525586E3,1.450374E3,2.5171287E3,9.019475E3,1.3891021E4,3.4025812E4,1.0228996E4,5.8711597E2,1.218457E3,2.5547695E3,1.8386016E3,9.4233105E2,1.1421777E3,5.105918E3,4.574699E3,1.5294961E3,6.5619766E3,3.5981953E3,2.6518281E3,1.7296172E3,1.5433969E4,1.1025459E3,3.3257617E3,2.1721367E3,0E0,2.9347773E3,0E0,4.160297E3,5.9433047E3,0E0,0E0,3.6939922E3,0E0,2.4504553E3,8.262578E2,4.479373E3,7.860156E2,4.5812344E3,2.2084883E3,2.3937915E2,2.1484674E2,0E0,5.874756E0,5.0169043E2,3.6086377E2,4.84581E-1,5.391096E0,3.4359375E1,4.393828E2,8.6778906E2,6.995698E2,2.694082E2,6.760244E2,8.298283E2,9.640737E2,1.3186041E4,4.512784E3,2.195503E3,4.8240586E3,0E0,0E0,3.7528984E3,8.218455E3,9.762677E1,2.6567825E2,3.5046735E2,1.0392354E3,1.5628721E3,6.63959E2,5.717617E2,9.642334E2,1.0535864E2,6.306279E2,7.7153906E2,0E0,2.7150078E3,4.4932334E3,8.2681445E2,1.1855547E3,2.2020947E2,6.6208594E2,2.7944922E3,2.7931523E3,1.9969805E3,1.9698867E3,8.468281E2,4.396836E2,7.944707E2,1.1532031E3,0E0,0E0,2.8223828E2,1.3196074E3,1.716E3,1.5182129E3,2.1963008E3,1.1958164E3,1.8038535E3,1.8273945E3,2.6861328E3,0E0,0E0,0E0,0E0,0E0,0E0,0E0,0E0,0E0,0E0,0E0,0E0,0E0,0E0,0E0,0E0,0E0,0E0,0E0,0E0,0E0,0E0,0E0,0E0,0E0,0E0,0E0,0E0,0E0,0E0,0E0,0E0,0E0,0E0,0E0,0E0,0E0,0E0,0E0,0E0,0E0,0E0,0E0,0E0,0E0,0E0,0E0,0E0,0E0,0E0,0E0,0E0,0E0,0E0,0E0,0E0,0E0,0E0,0E0,0E0,0E0,0E0,0E0,0E0,0E0,0E0,0E0,0E0,0E0,0E0,0E0,0E0,0E0,0E0,0E0,0E0,0E0,0E0,0E0,0E0,0E0,0E0,0E0,0E0,0E0,0E0,0E0,0E0,0E0,0E0,0E0,0E0,0E0,0E0,0E0,0E0,0E0,0E0,0E0,0E0,0E0,0E0,0E0,0E0,0E0,0E0,0E0,0E0,0E0,0E0,0E0,0E0,0E0,0E0,0E0,0E0,0E0,0E0,0E0,0E0,0E0,0E0,0E0,0E0,0E0,0E0,0E0],"parents":[2147483647,0,0,1,1,2,2,3,3,4,4,5,5,6,6,7,7,8,8,9,9,10,10,11,11,12,12,13,13,14,14,15,15,16,16,17,17,18,18,19,19,20,20,21,21,22,22,23,23,24,24,26,26,27,27,28,28,31,31,32,32,33,33,34,34,35,35,36,36,37,37,38,38,39,39,41,41,42,42,43,43,44,44,45,45,46,46,47,47,48,48,49,49,50,50,51,51,55,55,57,57,58,58,60,60,61,61,62,62,63,63,64,64,65,65,66,66,67,67,68,68,69,69,70,70,71,71,72,72,73,73,74,74,75,75,76,76,77,77,78,78,79,79,80,80,81,81,82,82,83,83,84,84,85,85,86,86,87,87,88,88,89,89,91,91,93,93,94,94,97,97,99,99,100,100,101,101,102,102,103,103,104,104,105,105,106,106,108,108,109,109,110,110,111,111,112,112,113,113,114,114,115,115,116,116,117,117,118,118,119,119,120,120,121,121,122,122,123,123,124,124,127,127,128,128,129,129,130,130,131,131,132,132,133,133,134,134,135,135,136,136,137,137,138,138,139,139,141,141,142,142,143,143,144,144,145,145,146,146,147,147,148,148,149,149,150,150,151,151,152,152,153,153,154,154,157,157,158,158,159,159,160,160,161,161,162,162,163,163,164,164,165,165],"right_children":[2,4,6,8,10,12,14,16,18,20,22,24,26,28,30,32,34,36,38,40,42,44,46,48,50,-1,52,54,56,-1,-1,58,60,62,64,66,68,70,72,74,-1,76,78,80,82,84,86,88,90,92,94,96,-1,-1,-1,98,-1,100,102,-1,104,106,108,110,112,114,116,118,120,122,124,126,128,130,132,134,136,138,140,142,144,146,148,150,152,154,156,158,160,162,-1,164,-1,166,168,-1,-1,170,-1,172,174,176,178,180,182,184,186,-1,188,190,192,194,196,198,200,202,204,206,208,210,212,214,216,218,220,-1,-1,222,224,226,228,230,232,234,236,238,240,242,244,246,-1,248,250,252,254,256,258,260,262,264,266,268,270,272,274,-1,-1,276,278,280,282,284,286,288,290,292,-1,-1,-1,-1,-1,-1,-1,-1,-1,-1,-1,-1,-1,-1,-1,-1,-1,-1,-1,-1,-1,-1,-1,-1,-1,-1,-1,-1,-1,-1,-1,-1,-1,-1,-1,-1,-1,-1,-1,-1,-1,-1,-1,-1,-1,-1,-1,-1,-1,-1,-1,-1,-1,-1,-1,-1,-1,-1,-1,-1,-1,-1,-1,-1,-1,-1,-1,-1,-1,-1,-1,-1,-1,-1,-1,-1,-1,-1,-1,-1,-1,-1,-1,-1,-1,-1,-1,-1,-1,-1,-1,-1,-1,-1,-1,-1,-1,-1,-1,-1,-1,-1,-1,-1,-1,-1,-1,-1,-1,-1,-1,-1,-1,-1,-1,-1,-1,-1,-1,-1,-1,-1,-1,-1,-1,-1,-1],"split_conditions":[9E0,1.2001953E0,3.59375E0,1.9226074E-2,6.616211E-1,3.9765625E0,4E0,3E0,4.3432617E-1,1.9152832E-1,5.522461E-1,4.5664062E0,2E0,8.5E0,3.1567383E-1,2E0,5.888672E-1,2.8564453E-1,3E0,6E0,3E0,4.5664062E0,3.5195312E0,6E0,3.334961E-1,2.3564866E0,4.5664062E0,2.9121094E0,2.3254395E-1,6.656537E0,1.2858642E1,5.7666016E-1,2.7612305E-1,6E0,6E0,1.3867188E-1,1.5893555E-1,3.2641602E-1,7.8430176E-2,8.8256836E-2,3.002433E-1,4.5664062E0,4E0,3E0,3.5878906E0,6E0,3.9765625E0,9.819336E-1,3.3666992E-1,4E0,3.6010742E-1,1.5634766E0,1.698676E0,6.003994E-1,1.0851774E0,9E0,3.647195E0,-5.393982E-3,9.863281E-1,1.6571736E-1,5.522461E-1,2.6757812E-1,-4.7875977E-1,8.2910156E-1,2.130127E-1,3.7963867E-2,1.3464355E-1,6.317139E-2,5.8691406E-1,1.1798096E-1,5.522461E-1,-1.6223145E-1,2.8085938E0,1.07803345E-2,4E0,4.0283203E-1,3.4375E-1,1.7871094E0,3.6010742E-1,3.9765625E0,2.46875E0,1.1542969E0,3.9765625E0,1.0986328E0,2.1796875E0,4.5664062E0,1.1308594E0,1.7871094E0,3E0,6.2597656E-1,8.5991615E-1,1.1542969E0,8.765065E-1,1E1,1.2138672E0,9.765622E-1,2.8116748E-1,6.92749E-2,2.4338474E0,2.0300293E-1,3.2495117E-1,3.408203E-1,1.1621094E0,1.7407227E-1,3.4155273E-1,4E0,3.762207E-1,5.0005536E-3,2.7197266E-1,3.166504E-1,3.166504E-1,-9.197998E-2,3.479004E-1,1.2268066E-2,1.3464355E-1,1.1798096E-1,4.9829102E-1,1.2268066E-2,6.088867E-1,4.885254E-1,3.334961E-1,2.8085938E0,8.2910156E-1,5.654297E-1,5.654297E-1,1.667565E0,2.3759738E-1,4E0,6.142578E-1,5.52063E-2,5E0,4.5664062E0,2.46875E0,1.9785156E0,4.1430664E-1,3E0,3E0,2.1496582E-1,6.611328E-1,6.611328E-1,4.367991E-1,1.9785156E0,2E0,3E0,2.8085938E0,3.2495117E-1,-1.7211914E-1,2.8515625E-1,7.1210938E0,2E0,3.9765625E0,3.6010742E-1,3E0,1.6953125E0,7.163086E-1,6.54823E-1,1.5571394E0,3.5742188E-1,4.6523438E0,2.1601562E0,3.6499023E-1,1.4365234E0,2E0,2E0,1.6865234E0,2.3261719E0,9.533623E-1,8.397652E-1,1.4046177E0,1.0458913E0,1.5216898E0,-1.8126315E-2,3.3020444E-2,3.0853286E-2,6.197949E-2,2.0785132E-1,5.4613996E-2,2.8397888E-1,3.7983885E-1,8.028001E-3,7.3253356E-2,1.7319638E-1,2.9081783E-1,-1.7855668E-2,-7.832079E-3,8.77434E-3,-1.0430203E-2,-2.960118E-2,-2.5706425E-2,8.214291E-2,2.7734462E-2,1.3734111E-1,8.7585114E-2,-3.0026352E-2,-2.5653038E-2,-7.437454E-3,-2.4810996E-2,-3.2189395E-2,-3.049827E-2,-2.9119918E-2,-2.4065394E-2,-1.449616E-2,-2.6166666E-2,-1.639525E-2,-1.1962786E-3,-2.964063E-2,-2.0145833E-2,-1.4384109E-2,-1.3959367E-3,-4.2526326E-3,1.7101267E-2,1.2868059E-2,3.7612926E-2,2.4393274E-2,2.2639373E-1,-1.3607027E-2,7.0037427E-3,5.672595E-3,3.3915754E-2,5.8007833E-2,1.16449594E-1,8.436305E-2,1.6417861E-1,4.723138E-1,1.6143124E-1,-2.507675E-2,3.0881787E-2,-4.069902E-3,2.2640653E-2,1.2549308E-2,5.2891195E-2,3.940053E-2,1.02274634E-1,3.9345328E-2,7.492846E-2,8.929389E-2,1.4816192E-1,1.12515725E-1,1.8645656E-1,2.1193512E-1,4.083148E-1,6.827276E-2,1.06501244E-1,1.9655691E-1,1.213156E-1,2.905649E-1,1.773795E-1,8.05635E-2,1.339644E-1,5.686351E-1,1.0471982E-1,1.4022145E-1,1.9899699E-1,2.6183164E-1,4.257203E-1,1.6075963E-1,2.3614421E-1,4.0725848E-1,2.60003E-1,6.329482E-1,3.3498967E-1,5.0612813E-1,9.045852E-1,3.2796142E-1,2.168395E-1,3.274541E-1,5.524951E-1,3.580286E-1,5.174138E-1,4.74957E-1,6.155003E-1,3.2296404E-1,4.9706745E-1,4.440506E-1,6.0285497E-1,9.724772E-2,1.9188161E-1,3.1936187E-1,1.623678E-1,2.7649674E-1,9.064149E-2,6.488522E-1,3.5802826E-1,5.379428E-1,8.568878E-1,3.4119096E-1,5.5241555E-1,1.14603415E-1,3.7937483E-1,6.427521E-1,4.0500972E-1,5.438852E-1,8.7080765E-1],"split_indices":[10,19,41,19,39,39,4,4,39,39,23,19,4,45,23,4,23,19,10,12,11,19,19,11,23,0,19,19,54,0,0,23,13,4,4,39,39,19,20,39,0,19,10,11,20,11,39,39,13,4,13,30,0,0,0,12,0,54,23,0,23,23,54,23,54,39,19,39,19,30,23,55,39,39,4,23,23,19,13,39,19,39,39,23,19,19,20,19,4,30,0,39,0,11,39,0,0,55,0,23,23,13,23,23,54,4,13,0,23,13,13,54,54,39,19,30,23,39,19,23,23,39,23,19,19,0,0,11,30,41,4,19,19,19,39,10,4,23,30,30,0,19,4,10,39,23,54,13,20,4,39,13,45,21,23,0,0,41,20,30,30,41,12,4,30,39,0,0,0,0,0,0,0,0,0,0,0,0,0,0,0,0,0,0,0,0,0,0,0,0,0,0,0,0,0,0,0,0,0,0,0,0,0,0,0,0,0,0,0,0,0,0,0,0,0,0,0,0,0,0,0,0,0,0,0,0,0,0,0,0,0,0,0,0,0,0,0,0,0,0,0,0,0,0,0,0,0,0,0,0,0,0,0,0,0,0,0,0,0,0,0,0,0,0,0,0,0,0,0,0,0,0,0,0,0,0,0,0,0,0,0,0,0,0,0,0,0,0,0,0,0,0,0],"split_type":[0,0,0,0,0,0,0,0,0,0,0,0,0,0,0,0,0,0,0,0,0,0,0,0,0,0,0,0,0,0,0,0,0,0,0,0,0,0,0,0,0,0,0,0,0,0,0,0,0,0,0,0,0,0,0,0,0,0,0,0,0,0,0,0,0,0,0,0,0,0,0,0,0,0,0,0,0,0,0,0,0,0,0,0,0,0,0,0,0,0,0,0,0,0,0,0,0,0,0,0,0,0,0,0,0,0,0,0,0,0,0,0,0,0,0,0,0,0,0,0,0,0,0,0,0,0,0,0,0,0,0,0,0,0,0,0,0,0,0,0,0,0,0,0,0,0,0,0,0,0,0,0,0,0,0,0,0,0,0,0,0,0,0,0,0,0,0,0,0,0,0,0,0,0,0,0,0,0,0,0,0,0,0,0,0,0,0,0,0,0,0,0,0,0,0,0,0,0,0,0,0,0,0,0,0,0,0,0,0,0,0,0,0,0,0,0,0,0,0,0,0,0,0,0,0,0,0,0,0,0,0,0,0,0,0,0,0,0,0,0,0,0,0,0,0,0,0,0,0,0,0,0,0,0,0,0,0,0,0,0,0,0,0,0,0,0,0,0,0,0,0,0,0,0,0,0,0,0,0,0,0,0,0,0,0,0,0,0,0,0,0,0,0],"sum_hessian":[4.947643E6,4.92461E6,2.3033E4,4.691558E6,2.33052E5,1.9754E4,3.279E3,5.63466E5,4.128092E6,1.45358E5,8.7694E4,1.8324E4,1.43E3,2.346E3,9.33E2,2.97714E5,2.65752E5,3.394204E6,7.33888E5,6.9514E4,7.5844E4,6.6572E4,2.1122E4,1.1969E4,6.355E3,3.88E2,1.042E3,9.6E2,1.386E3,5.18E2,4.15E2,1.84701E5,1.13013E5,2.48858E5,1.6894E4,2.791346E6,6.02858E5,6.9282E5,4.1068E4,6.9026E4,4.88E2,6.5255E4,1.0589E4,5.4777E4,1.1795E4,1.7165E4,3.957E3,9.568E3,2.401E3,3.679E3,2.676E3,6.8E2,3.62E2,5.98E2,3.62E2,1.053E3,3.33E2,1.72297E5,1.2404E4,5.695E4,5.6063E4,2.16309E5,3.2549E4,1.4877E4,2.017E3,1.730155E6,1.061191E6,3.24662E5,2.78196E5,5.22441E5,1.70379E5,6.73E2,4.0395E4,3.4079E4,3.4947E4,5.8426E4,6.829E3,7.688E3,2.901E3,3.9198E4,1.5579E4,6.382E3,5.413E3,1.3577E4,3.588E3,3.148E3,8.09E2,4.954E3,4.614E3,2.035E3,3.66E2,3.367E3,3.12E2,1.917E3,7.59E2,3.65E2,3.15E2,6.89E2,3.64E2,3.9052E4,1.33245E5,8.849E3,3.555E3,4.7641E4,8.422E3,1.85757E5,3.0552E4,4.58E2,3.2091E4,7.739E3,7.138E3,1.28E3,7.37E2,8.28317E5,9.01838E5,7.47643E5,3.13548E5,1.19631E5,2.05031E5,1.86643E5,9.1553E4,4.4791E4,4.7765E5,1.11646E5,5.8733E4,3E2,3.73E2,3.6734E4,3.661E3,1.4438E4,1.9641E4,2.1071E4,1.3876E4,5.0679E4,7.747E3,5.527E3,1.302E3,3.137E3,4.551E3,2.541E3,3.6E2,3.8358E4,8.4E2,1.0139E4,5.44E3,2.681E3,3.701E3,4.687E3,7.26E2,1.0456E4,3.121E3,2.489E3,1.099E3,1.133E3,2.015E3,5.03E2,3.06E2,2.324E3,2.63E3,3.864E3,7.5E2,9.47E2,1.088E3,2.05E3,1.317E3,1.374E3,5.43E2,3.77E2,3.82E2,3.87E2,3.02E2,2.346E4,1.5592E4,1.24087E5,9.158E3,6.065E3,2.784E3,1.502E3,2.053E3,1.6445E4,3.1196E4,6.277E3,2.145E3,2.8066E4,1.57691E5,2.2719E4,7.833E3,2.7509E4,4.582E3,2.507E3,5.232E3,2.05E3,5.088E3,4.49E2,8.31E2,3.07E2,4.3E2,6.81983E5,1.46334E5,6.70464E5,2.31374E5,7.0334E4,6.77309E5,2.79586E5,3.3962E4,5.8374E4,6.1257E4,1.504E5,5.4631E4,1.66208E5,2.0435E4,7.135E4,2.0203E4,4.1286E4,3.505E3,3.18171E5,1.59479E5,4.9244E4,6.2402E4,3.5089E4,2.3644E4,2.9363E4,7.371E3,1.344E3,2.317E3,1.412E4,3.18E2,1.4649E4,4.992E3,1.8637E4,2.434E3,1.0352E4,3.524E3,2.9395E4,2.1284E4,4.241E3,3.506E3,4.121E3,1.406E3,9.62E2,3.4E2,1.142E3,1.995E3,2.574E3,1.977E3,1.541E3,1E3,2.0762E4,1.7596E4,4.51E2,3.89E2,6.236E3,3.903E3,4.953E3,4.87E2,2.204E3,4.77E2,3.39E2,3.362E3,3.4E2,4.347E3,4.11E2,3.15E2,2.006E3,8.45E3,2.663E3,4.58E2,2.085E3,4.04E2,3.5E2,7.49E2,7.04E2,4.29E2,7.41E2,1.274E3,1.947E3,3.77E2,7.51E2,1.879E3,3.277E3,5.87E2,3.09E2,4.41E2,6.01E2,3.46E2,5.46E2,5.42E2,3.03E2,1.747E3,7.02E2,6.15E2,1.037E3,3.37E2],"tree_param":{"num_deleted":"0","num_feature":"61","num_nodes":"293","size_leaf_vector":"1"}},{"base_weights":[-5.8281067E-4,-4.0366255E-2,1.0153572E1,-9.9664815E-2,1.15575E0,5.426865E0,5.416482E1,3.063834E-1,-1.5449004E-1,7.9475206E-1,2.6509185E0,3.9449792E0,1.3562809E1,1.1801956E2,1.3462398E1,1.7436068E0,7.00854E-2,-2.1651676E-1,5.9511617E-2,3.238318E-1,1.1427805E0,8.497546E0,2.465995E0,1.2588847E0,4.7518563E0,3.580958E0,8.207881E0,6.0497246E0,1.9823828E1,5.9918517E-1,2.093553E0,1.1374564E0,4.031348E0,-1.9172419E-2,3.1979975E-1,-2.4466261E-1,-5.755482E-2,-3.8666144E-2,4.0275443E-1,1.531274E-1,6.00172E-1,8.722362E-1,1.9231046E0,3.6299665E0,2.50667E0,1.9261295E0,3.4065502E0,6.532789E-1,2.366526E0,3.6923585E0,5.869611E0,5.0501776E0,1.1249355E1,1.8624338E0,2.6057565E-1,5.7003856E0,2.7095072E0,1.3086928E-1,-1.330929E-1,2.5292572E-1,1.0389785E0,-2.7438885E-1,-2.131419E-1,-1.5388128E-1,2.1555917E-2,-1.2462392E-1,1.3949178E-1,3.192819E-1,7.99772E-1,-5.4639317E-2,2.3087123E-1,3.5374746E-1,1.033471E0,7.372249E-1,1.3523223E0,1.5628906E0,2.632653E0,5.6826395E-1,2.642401E0,5.317654E0,1.7820662E0,2.9866717E0,4.827222E0,9.304668E-3,1.0372337E0,2.0191379E0,3.1300268E-1,2.9932234E0,4.6722198E0,5.0689273E0,7.7348113E0,2.9836822E-1,6.278785E0,8.273177E-1,1.3948134E0,5.943853E-1,4.981035E0,1.8898962E-1,7.0013094E-1,7.672588E0,3.5428386E0,1.3919686E0,3.7085114E0,-3.0152786E-1,3.1242296E-1,-5.607874E-2,-2.0217252E-1,4.5194292E-1,5.736179E-2,1.7541703E0,3.4431484E-1,-2.8815767E-1,-2.5816932E-1,-2.394477E-1,-1.5084906E-1,-1.5759112E-1,7.1161E-1,-1.6141392E-2,2.3204327E-1,-1.623956E-1,-3.219002E-2,8.021026E-2,5.865868E-1,2.228631E-1,7.706223E-1,5.914116E-1,1.1276907E0,-2.2806004E-1,1.5395059E-2,1.731164E-1,4.0345475E-1,2.8688872E-1,9.695412E-1,9.349403E-1,2.410827E0,4.2370138E-1,8.225893E-1,9.796942E-1,1.6259422E0,1.2513595E0,2.0097997E0,2.3908954E0,4.2248187E0,1.8853681E-1,3.2565624E-1,3.8868265E0,8.712819E-1,1.2540224E0,2.2037144E0,2.842592E0,7.189033E-1,4.541139E0,7.7499706E-1,-2.928933E-2,4.0433075E-2,8.97065E-1,1.4071605E-1,2.3396821E-1,1.5994291E-1,5.4895496E-1,2.6655762E0,3.7884114E0,5.3376126E0,5.3730145E0,2.4287E-1,4.0525436E-1,8.877391E0,4.3989834E-1,8.01005E-1,5.3077545E-2,2.2967605E-1,7.135613E-1,2.7381223E-1,3.1825E-2,7.6846704E-3,2.4295731E-1,4.9330063E-2,1.0638047E0,5.895316E-1,2.4501379E-1,5.567964E-1,-1.1823218E-2,1.6782424E-1,1.2319931E0,2.8800616E-1,3.4123655E-2,-4.4029683E-2,2.4789942E-2,1.0665675E-1,-1.4162013E-2,7.717675E-3,-2.5225047E-2,-1.7153842E-2,8.343304E-3,1.0754778E-1,-9.427519E-3,1.7186603E-2,2.1838187E-1,9.427612E-3,1.3035178E-1,1.564778E-2,-2.8832022E-2,-1.7233305E-3,-2.6675446E-2,-2.2410113E-2,-2.4429472E-2,-1.6720772E-2,-1.7470784E-2,-1.1874956E-2,-2.3796033E-2,-1.1596017E-2,-1.5227522E-2,2.4287592E-1,-5.5332202E-3,4.5790765E-3,1.6997976E-2,4.2951446E-2,-1.9747375E-2,-9.450023E-3,-6.2371227E-3,1.0940557E-2,8.1404013E-4,2.8533837E-2,1.4071436E-1,3.676491E-2,1.2238188E-2,3.3517063E-2,6.2247325E-2,1.1018902E-1,7.425444E-2,2.2359433E-2,1.01293124E-1,1.6722386E-1,-2.6667768E-2,2.294377E-2,-5.389973E-3,8.789025E-3,1.6123926E-2,6.981986E-2,3.749686E-2,9.7949654E-2,1.1508319E-2,4.1778486E-2,7.393677E-2,1.6682832E-1,6.690286E-2,1.1921382E-1,1.7037968E-1,3.194229E-1,4.9053736E-2,1.6146211E-2,6.627419E-2,1.1573954E-1,1.3346955E-1,6.853048E-2,2.4002838E-1,1.3953449E-1,1.05092384E-1,1.5335867E-1,1.712793E-1,2.7299413E-1,2.0705357E-1,2.9913756E-1,2.9500908E-1,5.072367E-1,2.8643322E-1,5.522813E-1,1.06453E-1,2.286291E-1,2.0246871E-1,5.521647E-1,2.4356274E-1,3.8161418E-1,6.9547886E-1,4.2987522E-1,5.1104523E-2,1.0629524E-1,2.2641683E-1,3.4766063E-1,3.0799383E-1,5.4972315E-1,4.7134447E-1,6.2253714E-1,4.4849396E-1,6.187263E-1,7.057101E-1,1.024926E0],"categories":[],"categories_nodes":[],"categories_segments":[],"categories_sizes":[],"default_left":[0,0,0,0,0,0,0,0,0,0,0,0,0,0,0,0,0,0,0,0,0,0,0,0,0,0,0,0,0,0,0,0,0,0,0,0,0,0,0,0,0,0,0,0,0,0,0,0,0,0,0,0,0,0,0,0,0,0,0,0,0,0,0,0,0,0,0,0,0,0,0,0,0,0,0,0,0,0,0,0,0,0,0,0,0,0,0,0,0,0,0,0,0,0,0,0,0,0,0,0,0,0,0,0,0,0,0,0,0,0,0,0,0,0,0,0,0,0,0,0,0,0,0,0,0,0,0,0,0,0,0,0,0,0,0,0,0,0,0,0,0,0,0,0,0,0,0,0,0,0,0,0,0,0,0,0,0,0,0,0,0,0,0,0,0,0,0,0,0,0,0,0,0,0,0,0,0,0,0,0,0,0,0,0,0,0,0,0,0,0,0,0,0,0,0,0,0,0,0,0,0,0,0,0,0,0,0,0,0,0,0,0,0,0,0,0,0,0,0,0,0,0,0,0,0,0,0,0,0,0,0,0,0,0,0,0,0,0,0,0,0,0,0,0,0,0,0,0,0,0,0,0,0,0,0,0,0,0,0,0,0,0,0,0,0,0,0,0,0,0,0,0,0,0,0,0,0,0,0,0,0,0,0,0,0,0,0],"id":1,"left_children":[1,3,5,7,9,11,13,15,17,19,21,23,25,27,29,31,33,35,37,39,41,43,45,47,49,-1,51,-1,-1,-1,-1,53,55,57,59,61,63,65,67,69,71,73,75,77,-1,79,81,83,85,87,89,91,93,95,97,99,101,103,105,107,109,111,113,115,117,119,121,123,125,127,129,131,133,135,137,139,141,-1,143,145,147,149,151,153,155,157,-1,159,161,163,165,-1,167,-1,-1,169,171,173,175,177,179,181,183,185,187,189,191,193,195,197,199,201,203,205,207,209,211,213,215,217,219,221,223,225,227,229,231,233,235,237,239,241,243,245,247,249,251,253,255,257,259,261,263,-1,-1,265,-1,267,269,271,-1,273,-1,-1,-1,275,-1,-1,-1,-1,277,279,281,283,-1,-1,285,-1,-1,-1,-1,-1,-1,-1,-1,-1,-1,-1,-1,-1,-1,-1,-1,-1,-1,-1,-1,-1,-1,-1,-1,-1,-1,-1,-1,-1,-1,-1,-1,-1,-1,-1,-1,-1,-1,-1,-1,-1,-1,-1,-1,-1,-1,-1,-1,-1,-1,-1,-1,-1,-1,-1,-1,-1,-1,-1,-1,-1,-1,-1,-1,-1,-1,-1,-1,-1,-1,-1,-1,-1,-1,-1,-1,-1,-1,-1,-1,-1,-1,-1,-1,-1,-1,-1,-1,-1,-1,-1,-1,-1,-1,-1,-1,-1,-1,-1,-1,-1,-1,-1,-1,-1,-1,-1,-1,-1,-1,-1,-1,-1,-1,-1,-1,-1,-1,-1,-1],"loss_changes":[1.9992081E6,3.4964822E5,4.0175642E6,1.0455821E5,1.2567769E5,2.1023669E5,4.8664175E6,1.897505E5,5.4927758E4,3.0740023E4,4.894022E4,3.1975438E4,3.1980794E5,3.351881E6,6.379803E4,1.0939478E5,1.0695052E4,1.4353797E4,3.133546E4,3.7600273E3,2.2767625E4,1.1185355E5,2.2283688E4,2.2858608E3,1.3416109E4,0E0,2.0755219E4,0E0,0E0,0E0,0E0,3.9648008E4,3.6439812E4,6.0421084E3,6.076463E3,2.5537812E3,3.6775977E3,1.1072909E4,6.8536016E3,7.959149E2,3.2495596E3,5.1901367E3,7.0925703E3,2.1621406E3,0E0,1.3618383E4,9.533891E3,5.454393E2,3.132827E2,3.9785234E3,8.204547E3,2.685209E3,8.7439375E3,1.3500894E5,8.8809045E2,3.1043719E4,1.2134391E4,1.1976398E4,1.0689583E3,4.499271E3,5.3396885E3,3.131875E2,2.1676992E3,6.988496E2,2.1025452E3,1.7028579E3,6.237039E3,7.4364844E3,2.454125E3,1.6297066E2,3.5733594E2,7.986074E2,1.4951895E3,1.672707E3,1.7906328E3,2.5618906E3,3.5881172E3,0E0,3.318711E2,5.484707E3,5.9546562E3,7.4620234E3,3.01675E3,9.860369E1,7.039746E1,1.0805664E2,0E0,2.769543E3,1.4058711E3,3.09E3,6.931297E3,0E0,2.1354707E3,0E0,0E0,2.627252E3,4.7672688E4,3.5187146E2,1.4127936E3,2.0038688E4,7.7070156E3,1.7204429E3,3.7383023E4,4.0241274E3,5.2280176E3,1.0830166E3,1.6244922E2,1.3165086E4,1.0124224E3,3.776748E3,9.824641E2,3.3410156E1,1.883125E2,3.256289E2,3.0078906E2,7.249868E2,1.3784669E3,5.4546075E2,4.9319653E2,8.246133E2,6.0466376E2,3.0716362E3,4.9486836E3,1.58896E3,1.4755527E3,1.2211846E3,8.705703E2,6.8257645E1,4.802475E1,1.6744904E2,1.4715149E2,3.936162E2,3.0434705E2,7.035713E2,4.0221924E2,2.3443213E2,2.6287266E3,7.7715186E2,1.8061875E3,6.1249414E2,1.6131641E3,1.5554609E3,1.315002E3,0E0,0E0,1.324081E3,0E0,2.3217676E3,8.825172E3,4.7253047E3,0E0,1.9165234E3,0E0,0E0,0E0,6.3812744E1,0E0,0E0,0E0,0E0,9.723711E2,1.2482021E3,7.358828E2,2.4778438E3,0E0,0E0,3.0816328E3,0E0,0E0,0E0,0E0,0E0,0E0,0E0,0E0,0E0,0E0,0E0,0E0,0E0,0E0,0E0,0E0,0E0,0E0,0E0,0E0,0E0,0E0,0E0,0E0,0E0,0E0,0E0,0E0,0E0,0E0,0E0,0E0,0E0,0E0,0E0,0E0,0E0,0E0,0E0,0E0,0E0,0E0,0E0,0E0,0E0,0E0,0E0,0E0,0E0,0E0,0E0,0E0,0E0,0E0,0E0,0E0,0E0,0E0,0E0,0E0,0E0,0E0,0E0,0E0,0E0,0E0,0E0,0E0,0E0,0E0,0E0,0E0,0E0,0E0,0E0,0E0,0E0,0E0,0E0,0E0,0E0,0E0,0E0,0E0,0E0,0E0,0E0,0E0,0E0,0E0,0E0,0E0,0E0,0E0,0E0,0E0,0E0,0E0,0E0,0E0,0E0,0E0,0E0,0E0,0E0,0E0,0E0,0E0,0E0,0E0,0E0,0E0,0E0,0E0,0E0,0E0,0E0,0E0,0E0,0E0],"parents":[2147483647,0,0,1,1,2,2,3,3,4,4,5,5,6,6,7,7,8,8,9,9,10,10,11,11,12,12,13,13,14,14,15,15,16,16,17,17,18,18,19,19,20,20,21,21,22,22,23,23,24,24,26,26,31,31,32,32,33,33,34,34,35,35,36,36,37,37,38,38,39,39,40,40,41,41,42,42,43,43,45,45,46,46,47,47,48,48,49,49,50,50,51,51,52,52,53,53,54,54,55,55,56,56,57,57,58,58,59,59,60,60,61,61,62,62,63,63,64,64,65,65,66,66,67,67,68,68,69,69,70,70,71,71,72,72,73,73,74,74,75,75,76,76,78,78,79,79,80,80,81,81,82,82,83,83,84,84,85,85,87,87,88,88,89,89,90,90,92,92,95,95,96,96,97,97,98,98,99,99,100,100,101,101,102,102,103,103,104,104,105,105,106,106,107,107,108,108,109,109,110,110,111,111,112,112,113,113,114,114,115,115,116,116,117,117,118,118,119,119,120,120,121,121,122,122,123,123,124,124,125,125,126,126,127,127,128,128,129,129,130,130,131,131,132,132,133,133,134,134,135,135,136,136,137,137,138,138,139,139,140,140,141,141,142,142,145,145,147,147,148,148,149,149,151,151,155,155,160,160,161,161,162,162,163,163,166,166],"right_children":[2,4,6,8,10,12,14,16,18,20,22,24,26,28,30,32,34,36,38,40,42,44,46,48,50,-1,52,-1,-1,-1,-1,54,56,58,60,62,64,66,68,70,72,74,76,78,-1,80,82,84,86,88,90,92,94,96,98,100,102,104,106,108,110,112,114,116,118,120,122,124,126,128,130,132,134,136,138,140,142,-1,144,146,148,150,152,154,156,158,-1,160,162,164,166,-1,168,-1,-1,170,172,174,176,178,180,182,184,186,188,190,192,194,196,198,200,202,204,206,208,210,212,214,216,218,220,222,224,226,228,230,232,234,236,238,240,242,244,246,248,250,252,254,256,258,260,262,264,-1,-1,266,-1,268,270,272,-1,274,-1,-1,-1,276,-1,-1,-1,-1,278,280,282,284,-1,-1,286,-1,-1,-1,-1,-1,-1,-1,-1,-1,-1,-1,-1,-1,-1,-1,-1,-1,-1,-1,-1,-1,-1,-1,-1,-1,-1,-1,-1,-1,-1,-1,-1,-1,-1,-1,-1,-1,-1,-1,-1,-1,-1,-1,-1,-1,-1,-1,-1,-1,-1,-1,-1,-1,-1,-1,-1,-1,-1,-1,-1,-1,-1,-1,-1,-1,-1,-1,-1,-1,-1,-1,-1,-1,-1,-1,-1,-1,-1,-1,-1,-1,-1,-1,-1,-1,-1,-1,-1,-1,-1,-1,-1,-1,-1,-1,-1,-1,-1,-1,-1,-1,-1,-1,-1,-1,-1,-1,-1,-1,-1,-1,-1,-1,-1,-1,-1,-1,-1,-1,-1],"split_conditions":[8.296875E0,1.4003906E0,7.1E1,2.7612305E-1,1.3623047E0,3.9335938E0,7.2E1,3.1E1,3.3081055E-1,3.4423828E-1,-2.4768066E-1,5.078125E-1,8E0,2.7490234E-1,1.2158203E0,2.8E1,1.9372559E-1,3.2641602E-1,3.798828E-1,1.6308594E0,3.3339844E0,4E0,3.3339844E0,2.890625E-1,3.5878906E0,3.580958E0,4.6523438E0,6.0497246E0,1.9823828E1,5.9918517E-1,2.093553E0,2.1E1,1.4E1,4.3E1,2.6E1,9.741211E-2,1.1407471E-1,1.817627E-1,7.2265625E-1,1.1975098E-1,4.3E1,1.8662109E0,1.8662109E0,1.9226074E-2,2.50667E0,2.3596191E-1,2.6015625E0,1.2225342E-1,4.6523438E0,5.288086E-1,5.595703E-1,5.288086E-1,4.8095703E-1,2E1,5.9375E-1,3.0670166E-2,1.9E1,3.7E1,1.4E1,1.4E1,4.1E1,2.1972656E-2,1.4282227E-1,6.6679688E0,1E0,7.4121094E-1,1.5507812E0,1.3798828E0,8.618164E-1,2.1972656E-2,8.125E-1,2.4353027E-1,7.4E1,5.1171875E-1,1.6308594E0,3.9E1,5.683594E-1,5.6826395E-1,2.6152344E0,3.581543E-1,5.683594E-1,7.1E1,1.3349609E0,3.488159E-2,3.0151367E-1,3.1152344E-1,3.1300268E-1,3.5195312E0,4.5664062E0,5.1123047E-1,3.6401367E-1,2.9836822E-1,1.5634766E0,8.273177E-1,1.3948134E0,1.6347656E0,3.0670166E-2,2.4E1,6.1865234E-1,3E1,1.3E1,1.5E1,2E1,8E0,2.6E1,1.3E1,1.9E1,1.3E1,1.9E1,2.9E1,2.7E1,8.2E1,1.628418E-1,5.024414E-1,1.899414E-1,2.6260376E-2,2E0,5.307617E-1,1.9785156E0,1.11083984E-1,1.5686035E-1,9.7509766E-1,2.3596191E-1,6.5283203E-1,8.618164E-1,3.762207E-1,8.076172E-1,7.0751953E-1,4.1E1,4E0,5.9228516E-1,1.4526367E-1,3.5195312E0,1.7797852E-1,3.3339844E0,4.1235352E-1,5.288086E-1,6.2597656E-1,6.567383E-1,2.2167969E0,2.46875E0,5.3984375E0,2.2167969E0,1.8853681E-1,3.2565624E-1,1.817627E-1,8.712819E-1,3.1E1,1.8310547E0,2.2675781E0,7.189033E-1,5.5029297E-1,7.7499706E-1,-2.928933E-2,4.0433075E-2,1.7492676E-1,1.4071605E-1,2.3396821E-1,1.5994291E-1,5.4895496E-1,3E1,1.1376953E0,3.9E1,4.901123E-2,2.4287E-1,4.0525436E-1,6.9375E0,4.3989834E-1,8.01005E-1,5.3077545E-2,2.2967605E-1,7.135613E-1,2.7381223E-1,3.1825E-2,7.6846704E-3,2.4295731E-1,4.9330063E-2,1.0638047E0,5.895316E-1,2.4501379E-1,5.567964E-1,-1.1823218E-2,1.6782424E-1,1.2319931E0,2.8800616E-1,3.4123655E-2,-4.4029683E-2,2.4789942E-2,1.0665675E-1,-1.4162013E-2,7.717675E-3,-2.5225047E-2,-1.7153842E-2,8.343304E-3,1.0754778E-1,-9.427519E-3,1.7186603E-2,2.1838187E-1,9.427612E-3,1.3035178E-1,1.564778E-2,-2.8832022E-2,-1.7233305E-3,-2.6675446E-2,-2.2410113E-2,-2.4429472E-2,-1.6720772E-2,-1.7470784E-2,-1.1874956E-2,-2.3796033E-2,-1.1596017E-2,-1.5227522E-2,2.4287592E-1,-5.5332202E-3,4.5790765E-3,1.6997976E-2,4.2951446E-2,-1.9747375E-2,-9.450023E-3,-6.2371227E-3,1.0940557E-2,8.1404013E-4,2.8533837E-2,1.4071436E-1,3.676491E-2,1.2238188E-2,3.3517063E-2,6.2247325E-2,1.1018902E-1,7.425444E-2,2.2359433E-2,1.01293124E-1,1.6722386E-1,-2.6667768E-2,2.294377E-2,-5.389973E-3,8.789025E-3,1.6123926E-2,6.981986E-2,3.749686E-2,9.7949654E-2,1.1508319E-2,4.1778486E-2,7.393677E-2,1.6682832E-1,6.690286E-2,1.1921382E-1,1.7037968E-1,3.194229E-1,4.9053736E-2,1.6146211E-2,6.627419E-2,1.1573954E-1,1.3346955E-1,6.853048E-2,2.4002838E-1,1.3953449E-1,1.05092384E-1,1.5335867E-1,1.712793E-1,2.7299413E-1,2.0705357E-1,2.9913756E-1,2.9500908E-1,5.072367E-1,2.8643322E-1,5.522813E-1,1.06453E-1,2.286291E-1,2.0246871E-1,5.521647E-1,2.4356274E-1,3.8161418E-1,6.9547886E-1,4.2987522E-1,5.1104523E-2,1.0629524E-1,2.2641683E-1,3.4766063E-1,3.0799383E-1,5.4972315E-1,4.7134447E-1,6.2253714E-1,4.4849396E-1,6.187263E-1,7.057101E-1,1.024926E0],"split_indices":[44,44,3,14,34,34,3,3,34,34,55,34,6,24,34,3,28,19,19,19,44,44,44,34,20,0,20,0,0,0,0,3,6,3,6,34,34,44,24,34,3,21,21,21,0,29,36,34,20,24,24,24,24,3,28,28,6,3,6,6,3,34,19,22,19,24,34,19,36,34,21,41,3,19,19,3,24,0,41,14,24,3,24,34,29,29,0,19,19,14,28,0,28,0,0,28,28,3,28,3,6,6,6,6,6,6,6,6,6,6,6,3,19,24,34,34,20,19,19,19,20,24,29,19,36,14,19,28,3,44,24,34,19,34,44,29,24,29,29,20,19,44,20,0,0,20,0,3,28,21,0,29,0,0,0,34,0,0,0,0,3,21,3,55,0,0,19,0,0,0,0,0,0,0,0,0,0,0,0,0,0,0,0,0,0,0,0,0,0,0,0,0,0,0,0,0,0,0,0,0,0,0,0,0,0,0,0,0,0,0,0,0,0,0,0,0,0,0,0,0,0,0,0,0,0,0,0,0,0,0,0,0,0,0,0,0,0,0,0,0,0,0,0,0,0,0,0,0,0,0,0,0,0,0,0,0,0,0,0,0,0,0,0,0,0,0,0,0,0,0,0,0,0,0,0,0,0,0,0,0,0,0,0,0,0,0,0],"split_type":[0,0,0,0,0,0,0,0,0,0,0,0,0,0,0,0,0,0,0,0,0,0,0,0,0,0,0,0,0,0,0,0,0,0,0,0,0,0,0,0,0,0,0,0,0,0,0,0,0,0,0,0,0,0,0,0,0,0,0,0,0,0,0,0,0,0,0,0,0,0,0,0,0,0,0,0,0,0,0,0,0,0,0,0,0,0,0,0,0,0,0,0,0,0,0,0,0,0,0,0,0,0,0,0,0,0,0,0,0,0,0,0,0,0,0,0,0,0,0,0,0,0,0,0,0,0,0,0,0,0,0,0,0,0,0,0,0,0,0,0,0,0,0,0,0,0,0,0,0,0,0,0,0,0,0,0,0,0,0,0,0,0,0,0,0,0,0,0,0,0,0,0,0,0,0,0,0,0,0,0,0,0,0,0,0,0,0,0,0,0,0,0,0,0,0,0,0,0,0,0,0,0,0,0,0,0,0,0,0,0,0,0,0,0,0,0,0,0,0,0,0,0,0,0,0,0,0,0,0,0,0,0,0,0,0,0,0,0,0,0,0,0,0,0,0,0,0,0,0,0,0,0,0,0,0,0,0,0,0,0,0,0,0,0,0,0,0,0,0,0,0,0,0,0,0,0,0,0,0,0,0,0,0,0,0,0,0],"sum_hessian":[4.948934E6,4.929621E6,1.9313E4,4.696775E6,2.32846E5,1.7441E4,1.872E3,5.58725E5,4.13805E6,1.87562E5,4.5284E4,1.4755E4,2.686E3,7.28E2,1.144E3,7.889E4,4.79835E5,3.208183E6,9.29867E5,7.9709E4,1.07853E5,1.387E3,4.3897E4,3.409E3,1.1346E4,5.2E2,2.166E3,4.25E2,3.03E2,5.73E2,5.71E2,6.2367E4,1.6523E4,3.53486E5,1.26349E5,2.725589E6,4.82594E5,7.23053E5,2.06814E5,4.9273E4,3.0436E4,8.0088E4,2.7765E4,1.073E3,3.14E2,2.7891E4,1.6006E4,2.205E3,1.204E3,5.827E3,5.519E3,1.064E3,1.102E3,3.414E4,2.8227E4,7.301E3,9.222E3,1.52557E5,2.00929E5,1.15601E5,1.0748E4,1.402719E6,1.32287E6,2.17618E5,2.64976E5,4.87732E5,2.35321E5,1.70887E5,3.5927E4,1.3417E4,3.5856E4,1.9403E4,1.1033E4,6.2511E4,1.7577E4,1.8418E4,9.347E3,3.47E2,7.26E2,1.135E3,2.6756E4,1.2357E4,3.649E3,8.24E2,1.381E3,8.3E2,3.74E2,3.403E3,2.424E3,3.864E3,1.655E3,3.98E2,6.66E2,5.26E2,5.76E2,2.4272E4,9.868E3,2.4275E4,3.952E3,3.813E3,3.488E3,3.978E3,5.244E3,4.5113E4,1.07444E5,9.5009E4,1.0592E5,5.7294E4,5.8307E4,5.295E3,5.453E3,7.58667E5,6.44052E5,9.30095E5,3.92775E5,2.1669E5,9.28E2,2.24729E5,4.0247E4,3.46244E5,1.41488E5,2.07773E5,2.7548E4,1.40808E5,3.0079E4,2.197E4,1.3957E4,3.859E3,9.558E3,2.6867E4,8.989E3,1.7504E4,1.899E3,1.0298E4,7.35E2,1.3379E4,4.9132E4,7.444E3,1.0133E4,1.0855E4,7.563E3,8.117E3,1.23E3,3.27E2,3.99E2,8E2,3.35E2,1.1881E4,1.4875E4,1.1949E4,4.08E2,3.326E3,3.23E2,4.67E2,3.57E2,1.004E3,3.77E2,4.68E2,3.62E2,3.93E2,3.01E3,1.044E3,1.38E3,3.464E3,4E2,3.93E2,1.262E3,3.21E2,3.45E2,2.3399E4,8.73E2,5.032E3,4.836E3,1.1276E4,1.2999E4,4.21E2,3.531E3,1.427E3,2.386E3,2.267E3,1.221E3,6.34E2,3.344E3,4.59E2,4.785E3,8.01E3,3.7103E4,9.8977E4,8.467E3,5.7864E4,3.7145E4,4.0199E4,6.5721E4,3.6012E4,2.1282E4,2.5086E4,3.3221E4,4.206E3,1.089E3,8.92E2,4.561E3,7.58212E5,4.55E2,5.14414E5,1.29638E5,8.71611E5,5.8484E4,2.25306E5,1.67469E5,7.3941E4,1.42749E5,6.18E2,3.1E2,1.37634E5,8.7095E4,3.0624E4,9.623E3,2.28294E5,1.1795E5,1.16629E5,2.4859E4,1.53754E5,5.4019E4,5.801E3,2.1747E4,7.4318E4,6.649E4,2.0786E4,9.293E3,1.5571E4,6.399E3,1.153E4,2.427E3,3.559E3,3E2,4.887E3,4.671E3,2.6274E4,5.93E2,8.567E3,4.22E2,7.57E3,9.934E3,1.43E3,4.69E2,5.065E3,5.233E3,3.88E2,3.47E2,1.0661E4,2.718E3,3.3257E4,1.5875E4,3.373E3,4.071E3,2.323E3,7.81E3,6.35E3,4.505E3,5.357E3,2.206E3,5.296E3,2.821E3,4.93E2,7.37E2,4.94E2,3.06E2,1.004E4,1.841E3,1.4115E4,7.6E2,8.429E3,3.52E3,3.01E2,3.025E3,3.03E2,7.01E2,2.016E3,9.94E2,7.4E2,3.04E2,8.14E2,5.66E2,1.66E3,1.804E3,5.45E2,7.17E2],"tree_param":{"num_deleted":"0","num_feature":"61","num_nodes":"287","size_leaf_vector":"1"}},{"base_weights":[6.6741195E-4,-5.396719E-2,1.2298497E1,-9.92043E-2,1.9147973E0,7.649715E0,3.696524E1,-1.4876376E-1,2.5351498E-1,1.4195436E0,2.9284992E0,6.931589E0,1.3333984E1,2.3459257E1,6.605545E1,3.2035613E-1,-1.8341751E-1,1.4887486E-1,6.4943707E-1,1.3468969E0,2.8036017E0,2.79854E0,5.31197E0,6.6530223E0,1.1776429E1,2.7467654E0,8.6808405E0,1.2421166E1,3.376695E1,4.9798927E1,9.799454E0,2.7514112E-1,6.1493427E-1,-2.1867518E-1,-7.7813946E-2,3.550089E-2,3.501073E-1,4.6710438E-1,9.251979E-1,1.1154941E0,1.6930215E0,2.043039E0,3.6276076E0,2.2936962E0,3.1583009E0,3.8854265E0,6.839833E0,6.1690564E0,8.944677E0,9.4315046E-1,1.5889019E0,6.992621E0,1.5330801E0,6.672434E0,2.8484104E0,1.8382885E0,4.1559364E1,3.9434192E0,5.969545E0,-9.907109E-3,3.0155876E-1,8.817028E-2,3.5436794E-2,-2.5205052E-1,-1.8842746E-1,-1.1180129E-1,9.283192E-2,6.5784086E-3,2.8996924E-1,2.7056137E-1,6.8790454E-1,3.9623258E-1,7.732011E-1,7.826408E-1,1.279748E0,9.735557E-1,1.4318018E0,1.5135843E0,2.0552764E0,1.7449622E0,3.219367E-1,3.1324952E0,5.11706E-1,2.0619981E0,2.808019E0,2.8955548E0,3.8500443E0,3.2330948E-1,4.7259688E-1,8.6585885E-1,5.53664E-1,7.873463E0,5.413647E0,7.7763243E0,1.081692E1,6.287968E0,8.504526E-1,7.3718935E-1,5.693701E-1,2.219581E0,5.447584E0,4.0888527E-1,2.104388E-1,-2.5283238E-1,3.3295605E-1,-2.0292178E-1,-1.0528099E-1,1.8307601E-1,-1.2668248E-1,1.8761637E-2,2.16739E-1,3.3242702E-1,-1.4035365E-2,2.4652404E-1,6.598381E-1,8.497109E-1,2.2849524E-1,6.413822E-1,1.6387856E0,9.013095E-1,3.3810148E-1,7.330451E-1,1.8115444E-1,1.6240841E0,7.160717E-1,1.2139466E0,2.6256855E0,8.7352395E-1,1.318298E0,1.296368E0,1.7837746E0,2.5749528E0,1.416525E0,1.8955913E0,2.541587E0,2.2915588E-1,1.4702338E0,3.5620956E0,2.2574957E-1,1.8611575E0,2.634064E0,3.300426E0,2.351653E0,2.6269069E0,3.4708033E0,7.052222E-1,3.650821E0,4.967528E0,8.845364E0,3.8144047E0,5.8072925E0,7.2107534E0,8.421303E0,1.5190855E0,8.814673E0,7.656932E-1,5.2927285E-1,2.3967182E-2,6.0055245E-2,6.892405E-3,3.9058544E-2,-2.644887E-2,-2.302223E-2,-8.466546E-3,-2.0889765E-2,-1.2280318E-2,-7.8177307E-4,5.358439E-3,4.511691E-2,-1.3927149E-2,-3.1578733E-4,4.7909718E-5,2.1131651E-2,1.9401118E-2,1.7488445E-1,1.2947797E-2,4.002967E-2,-6.464453E-3,3.270615E-3,1.5876133E-2,3.3345964E-2,5.0195713E-2,9.447425E-2,4.910435E-2,1.0128384E-1,1.4574735E-2,3.704858E-2,5.673741E-2,1.0008611E-1,1.4351045E-1,2.290997E-1,6.617882E-2,1.1137527E-1,3.1226633E-2,8.596571E-2,6.7619026E-2,1.2079292E-1,1.7937596E-1,1.0810757E-1,6.696607E-2,1.5545239E-1,1.1008259E-1,1.7611091E-1,2.2100489E-1,3.040919E-1,1.4514075E-1,7.7793285E-2,1.1066028E-1,1.5215741E-1,1.8364917E-1,1.1709829E-1,1.6779707E-1,2.4057785E-1,3.4847578E-1,2.1658476E-1,1.2446385E-1,1.7307186E-1,1.7100546E-1,2.306036E-1,3.5898748E-1,2.2040632E-1,8.0883674E-2,1.8514268E-1,3.146624E-1,4.2374536E-1,2.568724E-1,1.6943364E-1,2.2074859E-1,3.086664E-1,4.968527E-1,2.9953954E-1,3.0021456E-1,2.2306047E-1,3.406041E-1,2.3825918E-1,3.056703E-1,3.931893E-1,3.2579404E-1,4.4173518E-1,3.288091E-1,5.8516896E-1,7.3421264E-1,1.0409397E0,3.3963647E-1,5.012794E-1,5.398628E-1,6.712207E-1,6.371046E-1,7.62482E-1,9.179511E-1,7.48306E-1,7.523717E-1,1.0377467E0],"categories":[],"categories_nodes":[],"categories_segments":[],"categories_sizes":[],"default_left":[0,0,0,0,0,0,0,0,0,0,0,0,0,0,0,0,0,0,0,0,0,0,0,0,0,0,0,0,0,0,0,0,0,0,0,0,0,0,0,0,0,0,0,0,0,0,0,0,0,0,0,0,0,0,0,0,0,0,0,0,0,0,0,0,0,0,0,0,0,0,0,0,0,0,0,0,0,0,0,0,0,0,0,0,0,0,0,0,0,0,0,0,0,0,0,0,0,0,0,0,0,0,0,0,0,0,0,0,0,0,0,0,0,0,0,0,0,0,0,0,0,0,0,0,0,0,0,0,0,0,0,0,0,0,0,0,0,0,0,0,0,0,0,0,0,0,0,0,0,0,0,0,0,0,0,0,0,0,0,0,0,0,0,0,0,0,0,0,0,0,0,0,0,0,0,0,0,0,0,0,0,0,0,0,0,0,0,0,0,0,0,0,0,0,0,0,0,0,0,0,0,0,0,0,0,0,0,0,0,0,0,0,0,0,0,0,0,0,0,0,0,0,0,0,0,0,0,0,0,0,0,0,0,0,0,0,0,0,0,0,0,0,0,0,0,0,0,0,0,0,0,0,0],"id":2,"left_children":[1,3,5,7,9,11,13,15,17,19,21,23,25,27,29,31,33,35,37,39,41,43,45,47,49,-1,51,53,55,57,-1,59,61,63,65,67,69,71,73,75,77,79,81,83,85,87,89,91,93,-1,-1,95,-1,97,-1,-1,99,-1,-1,-1,101,-1,-1,103,105,107,109,111,113,115,117,119,121,123,125,127,129,131,133,135,-1,137,-1,139,141,143,145,-1,-1,-1,-1,147,149,151,153,155,-1,-1,-1,-1,-1,157,159,161,-1,163,165,167,169,171,173,175,177,179,181,183,185,187,189,191,193,195,-1,197,199,201,203,205,207,209,211,213,215,217,219,-1,221,223,-1,225,227,229,231,233,235,-1,237,239,241,243,245,247,249,-1,251,-1,-1,-1,-1,-1,-1,-1,-1,-1,-1,-1,-1,-1,-1,-1,-1,-1,-1,-1,-1,-1,-1,-1,-1,-1,-1,-1,-1,-1,-1,-1,-1,-1,-1,-1,-1,-1,-1,-1,-1,-1,-1,-1,-1,-1,-1,-1,-1,-1,-1,-1,-1,-1,-1,-1,-1,-1,-1,-1,-1,-1,-1,-1,-1,-1,-1,-1,-1,-1,-1,-1,-1,-1,-1,-1,-1,-1,-1,-1,-1,-1,-1,-1,-1,-1,-1,-1,-1,-1,-1,-1,-1,-1,-1,-1,-1,-1,-1],"loss_changes":[3.325277E6,4.3882894E5,2.5098508E6,8.419695E4,5.5558094E4,7.5098375E4,1.3621785E6,6.86558E4,2.4583652E4,7.4720156E3,1.1236344E4,2.1995875E4,1.3556831E5,2.6946012E5,5.662605E5,3.869207E3,1.464275E4,1.0707894E4,6.236578E3,5.6563594E3,2.3157969E3,6.249125E3,4.064461E3,1.710125E4,8.413758E3,0E0,1.7350164E4,1.057257E5,1.4620788E5,7.2628E4,0E0,2.4897969E3,2.6867021E3,2.9763906E3,5.709101E3,2.2095002E3,4.544592E3,1.6196426E3,2.4944375E3,1.8996055E3,1.8366953E3,6.7111035E2,1.2951504E3,1.7027188E3,3.6440938E3,5.1822754E2,2.097082E3,1.6405531E4,5.8110312E3,0E0,0E0,1.2697109E3,0E0,5.371836E2,0E0,0E0,2.0212938E5,0E0,0E0,0E0,2.3005254E3,0E0,0E0,3.9261406E3,1.863918E3,3.6020986E3,1.500498E3,1.8107115E3,4.921765E2,3.3350684E3,1.4250205E3,1.7800381E3,5.839971E2,1.9714316E3,1.2506191E3,1.0068496E3,6.227754E2,1.9466484E3,7.230625E2,2.2818604E2,0E0,4.945371E2,0E0,1.131168E3,9.922344E2,2.2439062E3,3.5040156E3,0E0,0E0,0E0,0E0,1.10300625E4,5.5523594E3,5.4589844E2,8.912805E3,1.118918E3,0E0,0E0,0E0,0E0,0E0,3.5031016E3,3.2435244E3,3.6927344E2,0E0,9.3072266E2,3.920923E2,1.3690284E3,1.2151709E3,3.60224E2,2.129617E3,2.2087097E2,5.997492E2,2.0915356E2,1.4436438E2,5.4187695E2,1.4995474E3,8.171162E2,1.9637524E2,3.1769922E2,7.3247363E2,3.6413477E2,0E0,2.3586133E2,1.2689375E3,8.335879E2,1.0701367E2,1.2505664E3,2.8112598E2,6.393926E2,2.3557812E2,5.8239844E2,9.347383E2,5.336914E2,8.1083105E2,0E0,2.5793384E2,2.377959E2,0E0,8.599121E2,4.8879492E2,1.0729805E3,1.7543262E2,1.8843906E3,8.735469E2,0E0,1.5549297E3,1.443377E3,6.8287812E3,8.606836E2,2.590875E3,2.6191406E2,4.7978516E2,0E0,1.3563633E3,0E0,0E0,0E0,0E0,0E0,0E0,0E0,0E0,0E0,0E0,0E0,0E0,0E0,0E0,0E0,0E0,0E0,0E0,0E0,0E0,0E0,0E0,0E0,0E0,0E0,0E0,0E0,0E0,0E0,0E0,0E0,0E0,0E0,0E0,0E0,0E0,0E0,0E0,0E0,0E0,0E0,0E0,0E0,0E0,0E0,0E0,0E0,0E0,0E0,0E0,0E0,0E0,0E0,0E0,0E0,0E0,0E0,0E0,0E0,0E0,0E0,0E0,0E0,0E0,0E0,0E0,0E0,0E0,0E0,0E0,0E0,0E0,0E0,0E0,0E0,0E0,0E0,0E0,0E0,0E0,0E0,0E0,0E0,0E0,0E0,0E0,0E0,0E0,0E0,0E0,0E0,0E0,0E0,0E0,0E0,0E0,0E0,0E0],"parents":[2147483647,0,0,1,1,2,2,3,3,4,4,5,5,6,6,7,7,8,8,9,9,10,10,11,11,12,12,13,13,14,14,15,15,16,16,17,17,18,18,19,19,20,20,21,21,22,22,23,23,24,24,26,26,27,27,28,28,29,29,31,31,32,32,33,33,34,34,35,35,36,36,37,37,38,38,39,39,40,40,41,41,42,42,43,43,44,44,45,45,46,46,47,47,48,48,51,51,53,53,56,56,60,60,63,63,64,64,65,65,66,66,67,67,68,68,69,69,70,70,71,71,72,72,73,73,74,74,75,75,76,76,77,77,78,78,79,79,81,81,83,83,84,84,85,85,86,86,91,91,92,92,93,93,94,94,95,95,101,101,102,102,103,103,105,105,106,106,107,107,108,108,109,109,110,110,111,111,112,112,113,113,114,114,115,115,116,116,117,117,118,118,119,119,120,120,121,121,123,123,124,124,125,125,126,126,127,127,128,128,129,129,130,130,131,131,132,132,133,133,134,134,136,136,137,137,139,139,140,140,141,141,142,142,143,143,144,144,146,146,147,147,148,148,149,149,150,150,151,151,152,152,154,154],"right_children":[2,4,6,8,10,12,14,16,18,20,22,24,26,28,30,32,34,36,38,40,42,44,46,48,50,-1,52,54,56,58,-1,60,62,64,66,68,70,72,74,76,78,80,82,84,86,88,90,92,94,-1,-1,96,-1,98,-1,-1,100,-1,-1,-1,102,-1,-1,104,106,108,110,112,114,116,118,120,122,124,126,128,130,132,134,136,-1,138,-1,140,142,144,146,-1,-1,-1,-1,148,150,152,154,156,-1,-1,-1,-1,-1,158,160,162,-1,164,166,168,170,172,174,176,178,180,182,184,186,188,190,192,194,196,-1,198,200,202,204,206,208,210,212,214,216,218,220,-1,222,224,-1,226,228,230,232,234,236,-1,238,240,242,244,246,248,250,-1,252,-1,-1,-1,-1,-1,-1,-1,-1,-1,-1,-1,-1,-1,-1,-1,-1,-1,-1,-1,-1,-1,-1,-1,-1,-1,-1,-1,-1,-1,-1,-1,-1,-1,-1,-1,-1,-1,-1,-1,-1,-1,-1,-1,-1,-1,-1,-1,-1,-1,-1,-1,-1,-1,-1,-1,-1,-1,-1,-1,-1,-1,-1,-1,-1,-1,-1,-1,-1,-1,-1,-1,-1,-1,-1,-1,-1,-1,-1,-1,-1,-1,-1,-1,-1,-1,-1,-1,-1,-1,-1,-1,-1,-1,-1,-1,-1,-1,-1],"split_conditions":[9E0,3E0,3.8691406E0,1E0,5E0,3.9765625E0,8E0,2.7612305E-1,2E0,1.1E1,1.1E1,1.1E1,3.215332E-1,8.5E0,5.239258E-1,1E1,2.512207E-1,4.807129E-1,7.03125E-1,9.6484375E-1,2.602539E-1,6E0,2.5439453E-1,8.5E0,3.9520264E-3,2.7467654E0,1E1,7E0,3.0810547E-1,2.5439453E-1,9.799454E0,1E0,1.1E1,7.501221E-2,6.0009766E-1,1.2001953E0,1.2001953E0,1.5996094E0,1.5996094E0,4E0,2.0996094E0,1.0761719E0,3.4003906E0,1.4560547E0,1.8144531E0,5.595703E-1,8.1884766E-1,7.171631E-2,1.5537109E0,9.4315046E-1,1.5889019E0,1.0107422E0,1.5330801E0,2.1899414E-1,2.8484104E0,1.8382885E0,2.8183594E0,3.9434192E0,5.969545E0,-9.907109E-3,5E0,8.817028E-2,3.5436794E-2,1.2773438E0,5E-1,3.161621E-2,1.2001953E0,3.161621E-2,2E0,6.512451E-2,1.1E1,3.161621E-2,1.1E1,2.6260376E-2,1.1E1,2.0996094E0,2.5E0,6.161499E-2,2.3359375E0,6.945801E-2,3.219367E-1,1.0175781E0,5.11706E-1,3.4003906E0,3.269043E-1,3.4003906E0,-1.9006348E-1,3.2330948E-1,4.7259688E-1,8.6585885E-1,5.53664E-1,6.2060547E-1,5.966797E-1,9.819336E-1,8.330078E-1,3.708496E-1,8.504526E-1,7.3718935E-1,5.693701E-1,2.219581E0,5.447584E0,3E0,8E0,2.3803711E-2,3.3295605E-1,3.9367676E-2,1.4003906E0,6.4990234E-1,1.0107422E0,9.863281E-1,3.9765625E0,1.07055664E-1,1.9372559E-1,2.3803711E-1,2.5E0,7.236328E-1,3.9990234E-1,3E0,4E0,2.1130371E-1,1.1E1,3E0,1.8115444E-1,3.762207E-1,1.1E1,4E0,3.1982422E-1,3.161621E-2,4E0,5.105591E-2,4E0,-2.7053833E-2,4E0,3E0,2E0,2.2915588E-1,1.977539E-1,4.0771484E-1,2.2574957E-1,6.161499E-2,4E0,2.2277832E-1,-7.989502E-2,7.702637E-2,4E0,7.052222E-1,5E0,2.890625E-1,5.595703E-1,2.0996094E0,3.4003906E0,3.5107422E-1,1.7077637E-1,1.5190855E0,3.3666992E-1,7.656932E-1,5.2927285E-1,2.3967182E-2,6.0055245E-2,6.892405E-3,3.9058544E-2,-2.644887E-2,-2.302223E-2,-8.466546E-3,-2.0889765E-2,-1.2280318E-2,-7.8177307E-4,5.358439E-3,4.511691E-2,-1.3927149E-2,-3.1578733E-4,4.7909718E-5,2.1131651E-2,1.9401118E-2,1.7488445E-1,1.2947797E-2,4.002967E-2,-6.464453E-3,3.270615E-3,1.5876133E-2,3.3345964E-2,5.0195713E-2,9.447425E-2,4.910435E-2,1.0128384E-1,1.4574735E-2,3.704858E-2,5.673741E-2,1.0008611E-1,1.4351045E-1,2.290997E-1,6.617882E-2,1.1137527E-1,3.1226633E-2,8.596571E-2,6.7619026E-2,1.2079292E-1,1.7937596E-1,1.0810757E-1,6.696607E-2,1.5545239E-1,1.1008259E-1,1.7611091E-1,2.2100489E-1,3.040919E-1,1.4514075E-1,7.7793285E-2,1.1066028E-1,1.5215741E-1,1.8364917E-1,1.1709829E-1,1.6779707E-1,2.4057785E-1,3.4847578E-1,2.1658476E-1,1.2446385E-1,1.7307186E-1,1.7100546E-1,2.306036E-1,3.5898748E-1,2.2040632E-1,8.0883674E-2,1.8514268E-1,3.146624E-1,4.2374536E-1,2.568724E-1,1.6943364E-1,2.2074859E-1,3.086664E-1,4.968527E-1,2.9953954E-1,3.0021456E-1,2.2306047E-1,3.406041E-1,2.3825918E-1,3.056703E-1,3.931893E-1,3.2579404E-1,4.4173518E-1,3.288091E-1,5.8516896E-1,7.3421264E-1,1.0409397E0,3.3963647E-1,5.012794E-1,5.398628E-1,6.712207E-1,6.371046E-1,7.62482E-1,9.179511E-1,7.48306E-1,7.523717E-1,1.0377467E0],"split_indices":[8,8,40,8,8,33,47,13,8,59,59,59,13,45,23,59,33,33,33,33,29,8,29,45,40,0,59,59,13,23,0,59,59,33,45,45,45,45,45,8,45,33,45,33,33,23,29,29,33,0,0,23,0,56,0,0,29,0,0,0,59,0,0,40,45,29,45,29,12,29,59,29,59,39,59,45,45,24,33,24,0,29,0,45,13,45,54,0,0,0,0,33,39,39,29,23,0,0,0,0,0,59,59,33,0,29,45,33,23,23,39,33,33,40,45,33,45,12,12,33,59,12,0,13,59,12,24,29,59,29,12,54,8,12,59,0,40,24,0,24,59,29,54,24,59,0,59,33,23,45,45,29,56,0,13,0,0,0,0,0,0,0,0,0,0,0,0,0,0,0,0,0,0,0,0,0,0,0,0,0,0,0,0,0,0,0,0,0,0,0,0,0,0,0,0,0,0,0,0,0,0,0,0,0,0,0,0,0,0,0,0,0,0,0,0,0,0,0,0,0,0,0,0,0,0,0,0,0,0,0,0,0,0,0,0,0,0,0,0,0,0,0,0,0,0,0,0,0,0,0,0,0,0],"split_type":[0,0,0,0,0,0,0,0,0,0,0,0,0,0,0,0,0,0,0,0,0,0,0,0,0,0,0,0,0,0,0,0,0,0,0,0,0,0,0,0,0,0,0,0,0,0,0,0,0,0,0,0,0,0,0,0,0,0,0,0,0,0,0,0,0,0,0,0,0,0,0,0,0,0,0,0,0,0,0,0,0,0,0,0,0,0,0,0,0,0,0,0,0,0,0,0,0,0,0,0,0,0,0,0,0,0,0,0,0,0,0,0,0,0,0,0,0,0,0,0,0,0,0,0,0,0,0,0,0,0,0,0,0,0,0,0,0,0,0,0,0,0,0,0,0,0,0,0,0,0,0,0,0,0,0,0,0,0,0,0,0,0,0,0,0,0,0,0,0,0,0,0,0,0,0,0,0,0,0,0,0,0,0,0,0,0,0,0,0,0,0,0,0,0,0,0,0,0,0,0,0,0,0,0,0,0,0,0,0,0,0,0,0,0,0,0,0,0,0,0,0,0,0,0,0,0,0,0,0,0,0,0,0,0,0,0,0,0,0,0,0,0,0,0,0,0,0,0,0,0,0,0,0],"sum_hessian":[4.949159E6,4.92727E6,2.1889E4,4.816598E6,1.10672E5,1.8419E4,3.47E3,4.223209E6,5.93389E5,7.435E4,3.6322E4,1.6355E4,2.064E3,2.371E3,1.099E3,2.90507E5,3.932702E6,4.69345E5,1.24044E5,7.0644E4,3.706E3,3.4446E4,1.876E3,1.5468E4,8.87E2,5.1E2,1.554E3,1.146E3,1.225E3,7.3E2,3.69E2,2.51852E5,3.8655E4,2.948343E6,9.84359E5,3.00209E5,1.69136E5,7.4673E4,4.9371E4,4.2341E4,2.8303E4,1.929E3,1.777E3,1.4336E4,2.011E4,9.72E2,9.04E2,1.2774E4,2.694E3,5.67E2,3.2E2,1.241E3,3.13E2,8.45E2,3.01E2,4.13E2,8.12E2,3.59E2,3.71E2,1.6607E4,2.35245E5,1.9099E4,1.9556E4,1.4017E6,1.546643E6,8.20868E5,1.63491E5,2.69571E5,3.0638E4,1.369E5,3.2236E4,6.0636E4,1.4037E4,3.5215E4,1.4156E4,2.9229E4,1.3112E4,1.8931E4,9.372E3,1.541E3,3.88E2,1.336E3,4.41E2,9.887E3,4.449E3,1.4578E4,5.532E3,5.5E2,4.22E2,3.75E2,5.29E2,3.92E3,8.854E3,1.662E3,1.032E3,8.5E2,3.91E2,4.89E2,3.56E2,3.26E2,4.86E2,1.08015E5,1.2723E5,1.401395E6,3.05E2,1.31705E6,2.29593E5,3.9435E4,7.81433E5,1.02324E5,6.1167E4,1.6038E4,2.53533E5,2.7419E4,3.219E3,9.269E3,1.27631E5,3.0734E4,1.502E3,6.257E3,5.4379E4,1.3516E4,5.21E2,2.58E3,3.2635E4,1.3498E4,6.58E2,2.2658E4,6.571E3,9.472E3,3.64E3,1.584E3,1.7347E4,7.059E3,2.313E3,5.13E2,1.028E3,8.94E2,4.42E2,7.321E3,2.566E3,2.137E3,2.312E3,9.941E3,4.637E3,3.22E2,5.21E3,9.84E2,2.936E3,1.751E3,7.103E3,8.92E2,7.7E2,3.22E2,7.1E2,3.55E2,4.95E2,5.7369E4,5.0646E4,7.1256E4,5.5974E4,9.24679E5,4.76716E5,6.3354E4,1.253696E6,1.94606E5,3.4987E4,2.6592E4,1.2843E4,7.09159E5,7.2274E4,9.3452E4,8.872E3,6.0274E4,8.93E2,4.02E3,1.2018E4,1.2173E5,1.31803E5,1.3646E4,1.3773E4,2.073E3,1.146E3,2.899E3,6.37E3,8.0639E4,4.6992E4,2.5489E4,5.245E3,1.147E3,3.55E2,2.943E3,3.314E3,5.1814E4,2.565E3,1.2073E4,1.443E3,1.964E3,6.16E2,3.0925E4,1.71E3,1.1188E4,2.31E3,3.32E2,3.26E2,3.214E3,1.9444E4,3.222E3,3.349E3,1.782E3,7.69E3,3.114E3,5.26E2,4.89E2,1.095E3,1.1216E4,6.131E3,4.865E3,2.194E3,5.61E2,1.752E3,3.77E2,6.51E2,5.57E2,3.37E2,1.394E3,5.927E3,1.324E3,1.242E3,3.28E2,1.809E3,3.59E2,1.953E3,2.37E3,7.571E3,2.447E3,2.19E3,3.448E3,1.762E3,3.41E2,6.43E2,1.5E3,1.436E3,1.301E3,4.5E2,4.898E3,2.205E3,3E2,5.92E2,4.21E2,3.49E2,3.92E2,3.18E2],"tree_param":{"num_deleted":"0","num_feature":"61","num_nodes":"253","size_leaf_vector":"1"}},{"base_weights":[-2.7820806E-4,-3.8403764E-2,8.378283E0,-7.040273E-2,1.3502748E0,4.8282948E0,5.2891697E1,-1.19651325E-1,2.6022068E-1,9.5307344E-1,2.1222866E0,3.8624084E0,1.0966449E1,1.5614459E1,1.005051E2,2.8986332E-1,-1.5014337E-1,1.911976E0,1.624416E-1,7.828063E-1,1.7743096E0,1.8782488E0,3.879353E0,3.6136155E0,8.956097E0,3.51943E0,7.723237E0,5.8919704E-1,2.6905975E0,4.9274592E0,1.7243786E1,2.0288303E0,1.2643509E-2,-1.7263642E-1,5.212802E-2,1.3940222E0,3.2120342E0,9.937891E-3,4.6774483E-1,6.3482934E-1,1.1733658E0,1.4175259E0,2.4125044E0,1.4760215E0,2.4975853E0,1.0588027E0,3.3325324E0,2.6863523E0,4.736458E0,6.515369E-1,1.0846909E0,6.242086E0,1.8047552E0,1.2868202E0,4.757667E0,2.4854833E-1,-1.5886623E-1,-2.07491E-1,-1.0530899E-1,2.4996305E-2,4.1896677E-1,2.4282916E0,9.9336743E-1,4.866288E0,2.6482136E0,-2.074267E-2,2.4176015E-1,3.8694546E-1,9.9784714E-1,4.0090168E-1,7.9682755E-1,9.870039E-1,1.6611536E0,1.3376269E0,2.2017426E0,2.2676585E0,3.887392E-1,1.2218527E0,1.9113585E0,2.1919198E0,3.5588443E0,2.5218883E0,5.9940023E0,1.493738E0,3.0954106E0,6.472952E0,4.2951674E0,7.0459285E0,3.7816927E-1,2.6730828E0,1.322543E-1,3.9089544E0,1.1031127E1,4.9483854E-1,5.6884523E-2,-5.1245462E-2,-2.5775397E-1,-2.3405623E-1,-1.8314151E-1,3.0891332E-1,-1.2950796E-1,-8.855074E-3,2.0223877E-1,2.1211138E-1,5.5556715E-1,1.522058E0,2.9046934E0,6.2103266E-1,1.3776184E0,4.1172447E0,1.0017139E0,2.8803523E0,-6.3934736E-2,3.693533E-1,-4.1212548E-2,2.2180639E-1,2.348659E-1,3.442013E-1,1.1507409E0,9.108875E-1,1.679886E0,2.665267E-1,5.935769E-1,7.348755E-1,1.2338339E0,5.751074E-1,1.2475023E0,1.8634766E0,1.0702932E0,2.069144E0,1.2471874E0,3.039324E-1,1.6174704E-1,2.125356E0,3.3678672E-1,1.0919387E0,1.7006023E0,1.738927E0,2.6735635E0,2.0171099E0,2.9771364E0,3.2355123E0,5.1355743E-1,1.7659527E0,3.2383618E0,1.0038121E0,4.0264564E0,1.1893506E0,1.9816498E0,2.8508759E0,4.618258E0,5.4776487E0,8.9522964E-1,3.8365664E0,5.786295E0,5.631442E0,8.450123E0,5.2958835E-2,6.5713185E-1,-8.111727E-3,2.461667E-2,7.347559E-1,2.0860767E-1,2.1383927E0,2.5778997E-1,4.172305E-3,1.0609549E-1,-7.2566317E-3,8.616304E-2,-2.9164884E-2,2.168468E-3,-4.8024543E-2,-2.1648668E-2,-2.3509895E-2,9.820907E-2,-4.167387E-3,-1.909617E-2,5.4170657E-2,6.016544E-3,-1.5013762E-2,-2.712433E-3,-5.9143743E-3,5.531441E-3,1.2425866E-2,3.269062E-2,1.4481964E-2,4.2514987E-2,6.980349E-2,3.496846E-2,1.06291644E-1,2.3401521E-1,4.017447E-1,2.3111212E-1,7.673221E-2,1.9163924E-3,1.5741579E-1,5.3319037E-2,2.91409E-1,4.987936E-1,2.4745731E-1,4.2344496E-1,1.3890347E-1,2.9852977E-2,-4.9002357E-3,3.015469E-2,1.6747078E-2,3.8257286E-2,2.5102803E-2,5.9306033E-2,5.360408E-1,8.876561E-2,7.544913E-2,1.1341371E-1,1.4035378E-1,2.3146231E-1,2.3776483E-2,6.89051E-2,6.904193E-2,2.7111998E-2,1.15524195E-1,6.911515E-2,1.9635443E-1,8.939125E-2,3.896473E-2,7.676738E-2,2.3332487E-1,1.16006695E-1,1.2922321E-1,2.0650995E-1,7.899057E-2,1.2952839E-1,1.690695E-1,2.664846E-1,1.17627345E-1,1.9832797E-1,2.4438898E-1,1.6904588E-1,1.0438049E-1,2.2816448E-1,2.6934692E-1,1.4440942E-1,1.5613705E-1,2.3307231E-1,2.3755668E-1,3.4216654E-1,3.0291468E-1,1.9225454E-1,2.4489883E-1,4.7310397E-1,3.9050838E-1,2.6449844E-1,1.3740018E-1,2.3994736E-1,2.5614175E-1,4.7178417E-1,2.81779E-1,5.120019E-1,9.989658E-2,1.8538125E-1,1.684585E-1,2.4687408E-1,2.5998145E-1,4.3510172E-1,5.7534796E-1,3.689489E-1,4.8521397E-1,7.019485E-1,2.6047334E-1,4.4088823E-1,6.423196E-1,3.949978E-1,7.1429247E-1,4.1642365E-1,7.261178E-1,1.0380315E0],"categories":[],"categories_nodes":[],"categories_segments":[],"categories_sizes":[],"default_left":[0,0,0,0,0,0,0,0,0,0,0,0,0,0,0,0,0,0,0,0,0,0,0,0,0,0,0,0,0,0,0,0,0,0,0,0,0,0,0,0,0,0,0,0,0,0,0,0,0,0,0,0,0,0,0,0,0,0,0,0,0,0,0,0,0,0,0,0,0,0,0,0,0,0,0,0,0,0,0,0,0,0,0,0,0,0,0,0,0,0,0,0,0,0,0,0,0,0,0,0,0,0,0,0,0,0,0,0,0,0,0,0,0,0,0,0,0,0,0,0,0,0,0,0,0,0,0,0,0,0,0,0,0,0,0,0,0,0,0,0,0,0,0,0,0,0,0,0,0,0,0,0,0,0,0,0,0,0,0,0,0,0,0,0,0,0,0,0,0,0,0,0,0,0,0,0,0,0,0,0,0,0,0,0,0,0,0,0,0,0,0,0,0,0,0,0,0,0,0,0,0,0,0,0,0,0,0,0,0,0,0,0,0,0,0,0,0,0,0,0,0,0,0,0,0,0,0,0,0,0,0,0,0,0,0,0,0,0,0,0,0,0,0,0,0,0,0,0,0,0,0,0,0,0,0,0,0,0,0,0,0,0,0,0,0,0,0,0,0,0,0,0,0,0,0],"id":3,"left_children":[1,3,5,7,9,11,13,15,17,19,21,23,25,27,29,31,33,35,37,39,41,43,45,47,49,-1,51,-1,-1,-1,-1,53,55,57,59,61,63,65,67,69,71,73,75,77,79,-1,81,83,85,-1,-1,87,-1,89,91,93,95,97,99,101,103,105,107,109,111,113,115,117,119,121,123,125,127,129,131,133,-1,135,137,139,141,143,145,147,149,151,153,155,-1,157,159,161,163,165,167,169,171,173,175,177,179,181,183,185,187,189,191,193,195,197,-1,199,-1,201,203,205,-1,207,209,211,213,215,217,219,221,223,225,227,229,231,233,-1,-1,235,-1,237,239,241,243,245,247,249,-1,251,253,-1,255,257,259,261,263,265,-1,267,269,271,273,-1,-1,-1,-1,-1,-1,-1,-1,-1,-1,-1,-1,-1,-1,-1,-1,-1,-1,-1,-1,-1,-1,-1,-1,-1,-1,-1,-1,-1,-1,-1,-1,-1,-1,-1,-1,-1,-1,-1,-1,-1,-1,-1,-1,-1,-1,-1,-1,-1,-1,-1,-1,-1,-1,-1,-1,-1,-1,-1,-1,-1,-1,-1,-1,-1,-1,-1,-1,-1,-1,-1,-1,-1,-1,-1,-1,-1,-1,-1,-1,-1,-1,-1,-1,-1,-1,-1,-1,-1,-1,-1,-1,-1,-1,-1,-1,-1,-1,-1,-1,-1,-1,-1,-1,-1,-1,-1,-1,-1,-1,-1,-1,-1,-1,-1,-1,-1,-1],"loss_changes":[1.5811932E6,2.1896034E5,3.5429158E6,7.8426266E4,3.4031188E4,1.2308022E5,2.9376585E6,5.234638E4,1.0085119E5,1.0245883E4,1.6159391E4,2.2708844E4,2.2154831E5,1.0193841E5,2.6706085E6,1.4004694E5,1.7751031E4,2.3495453E4,2.7448996E4,3.5073906E3,2.8619258E3,8.243734E3,1.682854E4,1.7802734E4,3.7828203E3,0E0,3.7979406E4,0E0,0E0,0E0,0E0,8.087347E4,1.0137893E4,8.239445E3,3.8860947E3,1.0339805E4,9.260047E3,2.796302E3,8.411246E3,1.6680098E3,1.5144746E3,5.0295605E2,9.54875E2,2.218832E3,4.2203047E3,0E0,9.15859E3,4.5684688E3,5.901797E3,0E0,0E0,4.2848906E3,0E0,5.0265934E4,4.5421625E4,4.979194E3,1.5440352E3,1.4964297E3,1.2005092E4,2.18132E3,7.596719E2,3.0038867E3,2.5731172E3,9.704594E3,5.6622695E3,2.7725303E3,1.9312847E3,5.563246E3,1.5389863E3,4.6626343E2,7.0327344E2,1.294374E3,5.489883E2,4.823584E2,3.5966895E2,6.363125E2,0E0,7.866035E2,9.676582E2,1.3833789E3,1.4684492E3,1.7604648E3,7.852914E3,3.534839E2,2.5857422E3,3.8153828E3,4.1991016E3,3.2137734E3,0E0,1.1924281E5,4.1652185E2,4.7139992E4,8.894717E4,1.1841252E4,6.1797246E3,1.2181049E3,6.941177E2,1.40325E3,1.3353867E3,3.8279565E3,2.389998E3,9.850733E2,5.6673706E2,1.532734E2,4.7475244E2,9.001299E2,3.0065547E3,8.0464746E2,1.4684355E3,2.2974648E3,0E0,3.796211E3,0E0,1.2497412E3,8.808475E2,3.9757764E2,0E0,3.7418613E3,9.99707E3,8.0356055E2,5.1175098E2,1.2883588E2,2.3092749E2,4.1795508E2,7.9893164E2,1.6676794E2,6.9913086E2,3.9261523E2,7.3290405E1,1.7697583E2,3.3831934E2,0E0,0E0,5.0039258E2,0E0,5.6878125E2,6.847612E2,6.306074E2,2.9572754E2,7.8678125E2,1.6937705E3,9.46541E2,0E0,3.912661E2,1.6634688E3,0E0,8.698262E2,1.8512012E2,1.2881812E2,2.2544766E3,9.951738E2,1.0461055E3,0E0,3.3189219E3,1.6704844E3,1.7909512E3,1.8110234E3,0E0,0E0,0E0,0E0,0E0,0E0,0E0,0E0,0E0,0E0,0E0,0E0,0E0,0E0,0E0,0E0,0E0,0E0,0E0,0E0,0E0,0E0,0E0,0E0,0E0,0E0,0E0,0E0,0E0,0E0,0E0,0E0,0E0,0E0,0E0,0E0,0E0,0E0,0E0,0E0,0E0,0E0,0E0,0E0,0E0,0E0,0E0,0E0,0E0,0E0,0E0,0E0,0E0,0E0,0E0,0E0,0E0,0E0,0E0,0E0,0E0,0E0,0E0,0E0,0E0,0E0,0E0,0E0,0E0,0E0,0E0,0E0,0E0,0E0,0E0,0E0,0E0,0E0,0E0,0E0,0E0,0E0,0E0,0E0,0E0,0E0,0E0,0E0,0E0,0E0,0E0,0E0,0E0,0E0,0E0,0E0,0E0,0E0,0E0,0E0,0E0,0E0,0E0,0E0,0E0,0E0,0E0,0E0,0E0,0E0,0E0,0E0,0E0,0E0,0E0,0E0,0E0,0E0],"parents":[2147483647,0,0,1,1,2,2,3,3,4,4,5,5,6,6,7,7,8,8,9,9,10,10,11,11,12,12,13,13,14,14,15,15,16,16,17,17,18,18,19,19,20,20,21,21,22,22,23,23,24,24,26,26,31,31,32,32,33,33,34,34,35,35,36,36,37,37,38,38,39,39,40,40,41,41,42,42,43,43,44,44,46,46,47,47,48,48,51,51,53,53,54,54,55,55,56,56,57,57,58,58,59,59,60,60,61,61,62,62,63,63,64,64,65,65,66,66,67,67,68,68,69,69,70,70,71,71,72,72,73,73,74,74,75,75,77,77,78,78,79,79,80,80,81,81,82,82,83,83,84,84,85,85,86,86,87,87,89,89,90,90,91,91,92,92,93,93,94,94,95,95,96,96,97,97,98,98,99,99,100,100,101,101,102,102,103,103,104,104,105,105,106,106,107,107,108,108,109,109,111,111,113,113,114,114,115,115,117,117,118,118,119,119,120,120,121,121,122,122,123,123,124,124,125,125,126,126,127,127,128,128,129,129,130,130,133,133,135,135,136,136,137,137,138,138,139,139,140,140,141,141,143,143,144,144,146,146,147,147,148,148,149,149,150,150,151,151,153,153,154,154,155,155,156,156],"right_children":[2,4,6,8,10,12,14,16,18,20,22,24,26,28,30,32,34,36,38,40,42,44,46,48,50,-1,52,-1,-1,-1,-1,54,56,58,60,62,64,66,68,70,72,74,76,78,80,-1,82,84,86,-1,-1,88,-1,90,92,94,96,98,100,102,104,106,108,110,112,114,116,118,120,122,124,126,128,130,132,134,-1,136,138,140,142,144,146,148,150,152,154,156,-1,158,160,162,164,166,168,170,172,174,176,178,180,182,184,186,188,190,192,194,196,198,-1,200,-1,202,204,206,-1,208,210,212,214,216,218,220,222,224,226,228,230,232,234,-1,-1,236,-1,238,240,242,244,246,248,250,-1,252,254,-1,256,258,260,262,264,266,-1,268,270,272,274,-1,-1,-1,-1,-1,-1,-1,-1,-1,-1,-1,-1,-1,-1,-1,-1,-1,-1,-1,-1,-1,-1,-1,-1,-1,-1,-1,-1,-1,-1,-1,-1,-1,-1,-1,-1,-1,-1,-1,-1,-1,-1,-1,-1,-1,-1,-1,-1,-1,-1,-1,-1,-1,-1,-1,-1,-1,-1,-1,-1,-1,-1,-1,-1,-1,-1,-1,-1,-1,-1,-1,-1,-1,-1,-1,-1,-1,-1,-1,-1,-1,-1,-1,-1,-1,-1,-1,-1,-1,-1,-1,-1,-1,-1,-1,-1,-1,-1,-1,-1,-1,-1,-1,-1,-1,-1,-1,-1,-1,-1,-1,-1,-1,-1,-1,-1,-1,-1],"split_conditions":[9E0,3E0,5.9E1,5.605469E-1,1.1171875E0,4E0,4.7539062E0,2.7612305E-1,2.7612305E-1,3E0,4E0,7E1,8E0,4E0,2.8515625E-1,3.1E1,1E0,1.453125E0,1E0,5E0,5E0,5E0,2.861328E-1,1.2324219E0,9.0527344E-1,3.51943E0,7.4E1,5.8919704E-1,2.6905975E0,4.9274592E0,1.7243786E1,2.8E1,8E0,1.6003418E-1,1.6953125E0,8E0,3.166504E-1,1.2001953E0,2.0996094E0,3.75E-1,4.3E1,3.6010742E-1,3.6010742E-1,1.3056641E0,3.0429688E0,1.0588027E0,4.284668E-1,4.9487305E-1,1.4E1,6.515369E-1,1.0846909E0,2.5E1,1.8047552E0,1.5E1,2.7E1,1.4E1,1.4E1,4.989624E-2,2.7612305E-1,2E0,9E0,6E0,8.520508E-1,4E0,2.6E1,1.9424438E-2,5.9E1,2.8359375E0,2.34375E0,4.9E1,3.6010742E-1,4.477539E-1,3.762207E-1,2.8515625E-1,3.762207E-1,7.1E1,3.887392E-1,3.6010742E-1,3.6010742E-1,3.6010742E-1,3.6010742E-1,5E0,8E0,3.5742188E-1,5.5E0,2.34375E0,5.5E0,1.7E1,3.7816927E-1,2E1,2E1,3E1,2.9E1,1.2E1,2.6E1,5E0,3.2E1,7.1757812E0,2.7612305E-1,1.4E1,4.0820312E-1,2.2644043E-1,2.9101562E-1,2E0,3.3422852E-1,2.3E1,1.9E1,3.762207E-1,3.762207E-1,1.8095703E0,1.0017139E0,4E0,-6.3934736E-2,2.8515625E-1,2.8359375E0,3.5E0,2.348659E-1,2E0,2.8515625E-1,2E0,3.1E1,1.5E0,3.762207E-1,2.8515625E-1,3.762207E-1,2.4633789E-1,2.8515625E-1,2.685547E-1,6E0,6.245117E-1,7E1,3.039324E-1,1.6174704E-1,3.3666992E-1,3.3678672E-1,7.4E1,3.762207E-1,4.7539062E0,1.7568359E0,2.8515625E-1,1.2548828E0,3.1103516E-1,5.1355743E-1,2E0,4.5E1,1.0038121E0,9.4140625E-1,5E1,4E1,3.6010742E-1,3.3666992E-1,4.5E1,8.9522964E-1,2.3E1,2.5E1,1.4E1,1.0146484E0,5.2958835E-2,6.5713185E-1,-8.111727E-3,2.461667E-2,7.347559E-1,2.0860767E-1,2.1383927E0,2.5778997E-1,4.172305E-3,1.0609549E-1,-7.2566317E-3,8.616304E-2,-2.9164884E-2,2.168468E-3,-4.8024543E-2,-2.1648668E-2,-2.3509895E-2,9.820907E-2,-4.167387E-3,-1.909617E-2,5.4170657E-2,6.016544E-3,-1.5013762E-2,-2.712433E-3,-5.9143743E-3,5.531441E-3,1.2425866E-2,3.269062E-2,1.4481964E-2,4.2514987E-2,6.980349E-2,3.496846E-2,1.06291644E-1,2.3401521E-1,4.017447E-1,2.3111212E-1,7.673221E-2,1.9163924E-3,1.5741579E-1,5.3319037E-2,2.91409E-1,4.987936E-1,2.4745731E-1,4.2344496E-1,1.3890347E-1,2.9852977E-2,-4.9002357E-3,3.015469E-2,1.6747078E-2,3.8257286E-2,2.5102803E-2,5.9306033E-2,5.360408E-1,8.876561E-2,7.544913E-2,1.1341371E-1,1.4035378E-1,2.3146231E-1,2.3776483E-2,6.89051E-2,6.904193E-2,2.7111998E-2,1.15524195E-1,6.911515E-2,1.9635443E-1,8.939125E-2,3.896473E-2,7.676738E-2,2.3332487E-1,1.16006695E-1,1.2922321E-1,2.0650995E-1,7.899057E-2,1.2952839E-1,1.690695E-1,2.664846E-1,1.17627345E-1,1.9832797E-1,2.4438898E-1,1.6904588E-1,1.0438049E-1,2.2816448E-1,2.6934692E-1,1.4440942E-1,1.5613705E-1,2.3307231E-1,2.3755668E-1,3.4216654E-1,3.0291468E-1,1.9225454E-1,2.4489883E-1,4.7310397E-1,3.9050838E-1,2.6449844E-1,1.3740018E-1,2.3994736E-1,2.5614175E-1,4.7178417E-1,2.81779E-1,5.120019E-1,9.989658E-2,1.8538125E-1,1.684585E-1,2.4687408E-1,2.5998145E-1,4.3510172E-1,5.7534796E-1,3.689489E-1,4.8521397E-1,7.019485E-1,2.6047334E-1,4.4088823E-1,6.423196E-1,3.949978E-1,7.1429247E-1,4.1642365E-1,7.261178E-1,1.0380315E0],"split_indices":[9,9,5,38,38,38,21,13,14,46,38,3,6,38,24,3,9,38,9,9,9,9,14,38,38,0,3,0,0,0,0,3,5,38,21,5,13,46,46,38,3,13,13,21,21,0,54,38,0,0,0,0,0,5,0,6,6,38,14,9,5,5,38,38,0,40,5,38,38,3,13,38,14,13,13,3,0,13,13,13,13,9,6,38,46,38,46,0,0,3,0,3,0,6,6,6,3,21,14,5,21,38,38,9,15,0,0,13,13,38,0,38,0,14,38,46,0,9,14,9,3,46,14,13,13,38,13,38,9,42,3,0,0,15,0,3,13,21,42,13,42,14,0,46,5,0,21,3,3,13,15,5,0,3,0,0,24,0,0,0,0,0,0,0,0,0,0,0,0,0,0,0,0,0,0,0,0,0,0,0,0,0,0,0,0,0,0,0,0,0,0,0,0,0,0,0,0,0,0,0,0,0,0,0,0,0,0,0,0,0,0,0,0,0,0,0,0,0,0,0,0,0,0,0,0,0,0,0,0,0,0,0,0,0,0,0,0,0,0,0,0,0,0,0,0,0,0,0,0,0,0,0,0,0,0,0,0,0,0,0,0,0,0,0,0,0,0,0,0,0,0,0,0,0,0],"split_type":[0,0,0,0,0,0,0,0,0,0,0,0,0,0,0,0,0,0,0,0,0,0,0,0,0,0,0,0,0,0,0,0,0,0,0,0,0,0,0,0,0,0,0,0,0,0,0,0,0,0,0,0,0,0,0,0,0,0,0,0,0,0,0,0,0,0,0,0,0,0,0,0,0,0,0,0,0,0,0,0,0,0,0,0,0,0,0,0,0,0,0,0,0,0,0,0,0,0,0,0,0,0,0,0,0,0,0,0,0,0,0,0,0,0,0,0,0,0,0,0,0,0,0,0,0,0,0,0,0,0,0,0,0,0,0,0,0,0,0,0,0,0,0,0,0,0,0,0,0,0,0,0,0,0,0,0,0,0,0,0,0,0,0,0,0,0,0,0,0,0,0,0,0,0,0,0,0,0,0,0,0,0,0,0,0,0,0,0,0,0,0,0,0,0,0,0,0,0,0,0,0,0,0,0,0,0,0,0,0,0,0,0,0,0,0,0,0,0,0,0,0,0,0,0,0,0,0,0,0,0,0,0,0,0,0,0,0,0,0,0,0,0,0,0,0,0,0,0,0,0,0,0,0,0,0,0,0,0,0,0,0,0,0,0,0,0,0,0,0,0,0,0,0,0,0],"sum_hessian":[4.949931E6,4.92751E6,2.2421E4,4.816525E6,1.10985E5,2.0766E4,1.655E3,4.192086E6,6.24439E5,7.3283E4,3.7702E4,1.7944E4,2.822E3,9.29E2,7.26E2,2.90507E5,3.901579E6,3.4898E4,5.89541E5,6.07E4,1.2583E4,3.3106E4,4.596E3,1.711E4,8.34E2,3.32E2,2.49E3,5E2,4.29E2,4.25E2,3.01E2,3.9943E4,2.50564E5,3.511133E6,3.90446E5,2.4957E4,9.941E3,3.93155E5,1.96386E5,4.4023E4,1.6677E4,8.073E3,4.51E3,2.0073E4,1.3033E4,3.45E2,4.251E3,9.373E3,7.737E3,3.66E2,4.68E2,2.179E3,3.11E2,3.1405E4,8.538E3,1.0548E5,1.45084E5,2.313474E6,1.197659E6,3.63558E5,2.6888E4,6.967E3,1.799E4,2.525E3,7.416E3,3.47205E5,4.595E4,1.70413E5,2.5973E4,1.8014E4,2.6009E4,1.2069E4,4.608E3,7.329E3,7.44E2,4.109E3,4.01E2,1.2676E4,7.397E3,1.0121E4,2.912E3,3.26E3,9.91E2,2.395E3,6.978E3,1.565E3,6.172E3,1.641E3,5.38E2,1.427E4,1.7135E4,7.522E3,1.016E3,4.6161E4,5.9319E4,6.9475E4,7.5609E4,1.106393E6,1.207081E6,6.6105E4,1.131554E6,3.05258E5,5.83E4,1.0695E4,1.6193E4,2.402E3,4.565E3,9.138E3,8.852E3,2.206E3,3.19E2,6.927E3,4.89E2,1.731E4,3.29895E5,4.552E4,4.3E2,1.61383E5,9.03E3,2.3038E4,2.935E3,1.0614E4,7.4E3,2.2782E4,3.227E3,4.677E3,7.392E3,3.431E3,1.177E3,8.04E2,6.525E3,3.04E2,4.4E2,3.641E3,4.68E2,9.973E3,2.703E3,6.035E3,1.362E3,8.281E3,1.84E3,2.419E3,4.93E2,1.588E3,1.672E3,3.23E2,6.68E2,1.477E3,9.18E2,6.015E3,9.63E2,1.119E3,4.46E2,4.723E3,1.449E3,8.2E2,8.21E2,9.208E3,5.062E3,5.964E3,1.1171E4,2.605E3,4.917E3,4.56E2,5.6E2,2.564E4,2.0521E4,5.11E4,8.219E3,1.617E4,5.3305E4,1.1828E4,6.3781E4,1.105446E6,9.47E2,6.3231E4,1.14385E6,3.4147E4,3.1958E4,9.41789E5,1.89765E5,1.71139E5,1.34119E5,3.5867E4,2.2433E4,8.129E3,2.566E3,9.569E3,6.624E3,1.54E3,8.62E2,1.586E3,2.979E3,7.351E3,1.787E3,7.18E3,1.672E3,9.28E2,1.278E3,5.332E3,1.595E3,1.123E3,1.6187E4,3.22565E5,7.33E3,3.4023E4,1.1497E4,1.17422E5,4.3961E4,5.3E2,8.5E3,1.355E4,9.488E3,2.047E3,8.88E2,9.939E3,6.75E2,5.69E3,1.71E3,2.144E3,2.0638E4,1.024E3,2.203E3,2.384E3,2.293E3,5.49E2,6.843E3,8.97E2,2.534E3,5.26E2,6.51E2,4.94E2,3.1E2,5.954E3,5.71E2,2.099E3,1.542E3,9.587E3,3.86E2,5.53E2,2.15E3,4.645E3,1.39E3,9.77E2,3.85E2,7.05E2,7.576E3,1.416E3,4.24E2,1.131E3,1.288E3,9.83E2,6.05E2,1.149E3,5.23E2,3.19E2,3.49E2,1.15E3,3.27E2,5.73E2,3.45E2,5.155E3,8.6E2,4.31E2,5.32E2,7.99E2,3.2E2,1.5E3,3.223E3,1.074E3,3.75E2,4.02E2,4.18E2,5.11E2,3.1E2],"tree_param":{"num_deleted":"0","num_feature":"61","num_nodes":"275","size_leaf_vector":"1"}},{"base_weights":[-8.6752296E-4,-4.5675263E-2,1.0166808E1,-8.337109E-2,1.5950283E0,6.869095E0,4.8403282E1,-1.2479786E-1,2.1134095E-1,1.1814618E0,2.43623E0,5.8667965E0,1.1379201E1,9.539973E1,1.6074608E1,2.3086326E-1,-1.5262933E-1,1.24270014E-1,5.412969E-1,1.0666547E0,1.7702705E0,2.207248E0,3.1142502E0,5.728978E0,1.0460774E0,2.3132828E1,8.727329E0,4.3913984E0,1.6384447E1,8.718828E0,3.2331684E0,5.923238E-1,-1.1381244E-1,-1.7942235E-1,-7.483104E-2,3.5990268E-2,2.8119567E-1,4.6752033E-1,1.003679E0,9.277335E-1,1.3491515E0,1.7093256E0,3.8921222E-1,1.8169591E0,2.4992032E0,2.8944843E0,4.0045295E0,4.582853E0,6.2414327E0,4.1885257E0,4.7003227E-1,5.596467E0,1.0329839E1,9.84213E-1,7.5772446E-1,2.4378234E-1,1.1601112E0,1.0532287E-2,-1.5298878E-1,-2.041923E-1,-1.5403447E-1,-9.109028E-2,9.7758576E-2,1.977689E-2,2.4281739E-1,2.3338991E-1,6.411918E-1,3.1415802E-1,6.082682E-1,9.613425E-1,2.531416E-1,7.2337604E-1,1.0742432E0,1.1971356E0,1.6035541E0,1.5141934E0,2.0017848E0,1.7548596E0,2.9057531E0,2.2598445E0,2.8694742E0,2.512189E0,3.1367679E0,4.3859906E0,3.3050876E0,2.776432E0,4.863283E0,6.8239293E0,5.0920997E0,6.490316E-1,4.9367958E-1,5.828638E0,1.2378805E1,5.02171E-1,5.1752187E-2,2.1104987E0,-2.5694615E-1,2.063881E-1,-8.8609196E-2,6.256284E-2,-1.853899E-1,-2.0452182E-1,9.578141E-2,-1.6159707E-1,-9.570581E-2,-4.1352615E-2,-1.0571474E-1,1.521731E-1,9.20944E-2,9.6042275E-2,-1.4789987E-2,1.8980458E-1,5.0694346E-1,2.225438E-1,9.750995E-1,5.5226195E-1,1.0327109E0,4.0665385E-1,2.4209684E-1,5.2008575E-1,7.193175E-1,8.58857E-1,1.3683227E0,5.8486915E-1,7.9709214E-1,1.0535858E0,1.9836704E-1,1.1706446E0,1.9776253E-1,2.093622E0,1.4729446E0,1.4414105E0,2.1480768E0,1.8468684E0,2.4470994E0,1.5899205E0,1.9734232E0,2.7191627E-1,3.0932137E-1,1.6436896E0,2.3845723E0,4.5376572E-1,2.778427E0,2.3401895E0,3.7197575E-1,3.3691752E0,2.689583E0,3.9192834E0,5.2053237E-1,3.6856273E-1,2.962398E-1,2.1100144E-1,3.3502924E-1,5.2919707E0,3.8390214E0,6.428872E0,1.1062163E1,5.766137E0,4.3272753E0,6.864255E-1,4.753538E-1,1.7561428E1,7.6417513E0,3.588499E-2,4.066003E-1,-7.169238E-3,6.604292E-2,1.4117287E-1,4.1947076E-1,-4.683183E-2,1.8633327E-1,3.946082E-3,9.366871E-2,-1.0475608E-2,1.1906014E-1,3.5936255E-2,-9.694098E-3,-2.4819244E-2,-1.3432562E-2,-2.1730585E-2,-1.8958567E-2,-1.2864962E-2,-1.7170347E-2,-1.1029668E-2,-3.992829E-3,-7.2988295E-3,-1.946418E-4,-1.2467167E-2,-3.7052736E-3,5.819514E-3,2.1330545E-2,4.2222063E-3,1.5798172E-2,-3.5016981E-3,9.245346E-3,1.0925083E-2,2.9801194E-2,4.2119257E-2,7.968772E-2,1.6493127E-2,3.129086E-2,7.231122E-2,1.5027227E-1,3.6194824E-2,6.2154897E-2,8.8391475E-2,1.3209958E-1,3.400901E-2,5.143666E-2,2.0806879E-2,5.4699164E-2,5.053125E-2,1.105132E-1,6.965719E-2,1.3100155E-1,7.2631404E-2,1.0577972E-1,1.2646893E-1,2.2657166E-1,4.700986E-2,7.638345E-2,9.300234E-2,6.559962E-2,1.2090552E-1,9.3763895E-2,9.365896E-2,1.2269256E-1,1.7115308E-1,3.3356926E-1,1.6001113E-1,1.2582192E-1,1.1471595E-1,1.5092458E-1,2.5577444E-1,1.7896247E-1,1.7843468E-1,2.4291857E-1,2.1672073E-1,3.1971225E-1,1.5173689E-1,2.0389509E-1,2.4074304E-1,1.8641154E-1,9.5996715E-2,1.812802E-1,2.6135677E-1,1.9617519E-1,3.5201874E-1,2.5581607E-1,2.5224778E-1,1.9031288E-1,3.0041558E-1,3.6903116E-1,2.4974819E-1,3.094784E-1,3.4555238E-1,4.558692E-1,3.2611826E-1,5.725816E-1,3.451505E-1,4.895257E-1,7.004429E-1,5.605354E-1,1.1588628E0,1.0485784E0,4.6384922E-1,6.348218E-1,3.9382237E-1,6.03409E-1,1.9118525E0,1.6003007E0,9.7282165E-1,5.497684E-1],"categories":[],"categories_nodes":[],"categories_segments":[],"categories_sizes":[],"default_left":[0,0,0,0,0,0,0,0,0,0,0,0,0,0,0,0,0,0,0,0,0,0,0,0,0,0,0,0,0,0,0,0,0,0,0,0,0,0,0,0,0,0,0,0,0,0,0,0,0,0,0,0,0,0,0,0,0,0,0,0,0,0,0,0,0,0,0,0,0,0,0,0,0,0,0,0,0,0,0,0,0,0,0,0,0,0,0,0,0,0,0,0,0,0,0,0,0,0,0,0,0,0,0,0,0,0,0,0,0,0,0,0,0,0,0,0,0,0,0,0,0,0,0,0,0,0,0,0,0,0,0,0,0,0,0,0,0,0,0,0,0,0,0,0,0,0,0,0,0,0,0,0,0,0,0,0,0,0,0,0,0,0,0,0,0,0,0,0,0,0,0,0,0,0,0,0,0,0,0,0,0,0,0,0,0,0,0,0,0,0,0,0,0,0,0,0,0,0,0,0,0,0,0,0,0,0,0,0,0,0,0,0,0,0,0,0,0,0,0,0,0,0,0,0,0,0,0,0,0,0,0,0,0,0,0,0,0,0,0,0,0,0,0,0,0,0,0,0,0,0,0,0,0,0,0,0,0,0,0,0,0,0,0,0,0,0,0,0,0,0,0,0,0],"id":4,"left_children":[1,3,5,7,9,11,13,15,17,19,21,23,25,27,29,31,33,35,37,39,41,43,45,47,-1,49,51,-1,-1,53,-1,55,57,59,61,63,65,67,69,71,73,75,-1,77,79,81,83,85,87,-1,-1,89,91,-1,-1,93,95,97,99,101,103,105,107,109,111,113,115,117,119,121,-1,123,125,127,129,131,133,135,137,139,141,143,145,147,149,151,153,155,157,-1,-1,159,161,163,165,167,169,171,173,175,177,179,-1,181,183,185,187,-1,189,191,193,195,197,199,201,203,205,207,209,211,213,215,217,219,221,223,-1,225,-1,227,229,231,233,235,237,239,241,-1,-1,243,245,-1,247,249,-1,251,253,255,-1,-1,-1,-1,-1,257,259,261,263,265,267,-1,-1,269,271,-1,-1,-1,-1,-1,-1,-1,-1,-1,-1,-1,-1,-1,-1,-1,-1,-1,-1,-1,-1,-1,-1,-1,-1,-1,-1,-1,-1,-1,-1,-1,-1,-1,-1,-1,-1,-1,-1,-1,-1,-1,-1,-1,-1,-1,-1,-1,-1,-1,-1,-1,-1,-1,-1,-1,-1,-1,-1,-1,-1,-1,-1,-1,-1,-1,-1,-1,-1,-1,-1,-1,-1,-1,-1,-1,-1,-1,-1,-1,-1,-1,-1,-1,-1,-1,-1,-1,-1,-1,-1,-1,-1,-1,-1,-1,-1,-1,-1,-1,-1,-1,-1,-1,-1,-1,-1,-1,-1,-1,-1],"loss_changes":[2.253579E6,3.045874E5,2.7362625E6,5.8776336E4,3.8476844E4,9.025675E4,2.6162765E6,4.1780695E4,1.7045646E4,5.010883E3,5.652922E3,1.02918125E4,1.1300434E5,2.4666035E6,1.21932375E5,3.816407E4,8.159672E3,6.503297E3,4.225375E3,2.434164E3,1.5578125E3,3.1010938E3,1.7886172E3,9.296E3,0E0,2.3070019E5,1.4818297E4,0E0,0E0,8.2947656E2,0E0,2.958973E4,7.638518E2,1.8310469E3,2.814005E3,1.0074503E3,2.9084775E3,2.3058652E3,1.1000176E3,1.2448281E3,7.891406E2,6.682031E2,0E0,7.8375E2,1.3751172E3,6.7596484E2,4.7083203E2,2.4732812E3,7.308125E3,0E0,0E0,5.6114453E2,1.8004531E4,0E0,0E0,4.5971187E3,7.659447E4,7.294926E2,8.3277686E2,5.6452734E2,6.3429297E2,6.6660986E2,6.9622205E2,7.3444403E2,3.0569495E2,1.2000303E3,6.892383E2,3.40688E2,5.451426E2,6.9066113E2,0E0,1.7693555E2,4.530879E2,2.625E2,4.864453E2,3.2257715E2,3.1999414E2,3.9485156E2,1.3555664E1,7.2409766E2,9.1646875E2,5.8718945E2,4.6017578E2,4.2852344E2,7.332422E1,2.461001E2,1.8449297E3,1.2111406E4,1.8788672E3,0E0,0E0,6.5210547E2,3.291061E4,2.017404E4,3.9937004E3,4.957225E4,1.0233443E4,1.5391586E3,5.1532855E2,7.3769745E2,3.3238818E2,2.8129688E2,0E0,4.2382812E2,1.3431384E2,2.595993E2,9.218203E2,0E0,3.533421E2,2.8964594E2,4.158521E2,1.5852075E2,9.041095E1,7.6550684E2,2.84765E2,2.1269287E2,1.5608813E2,1.6034204E2,2.9807336E2,2.6784082E2,3.3033398E2,3.4868945E2,3.0729004E2,1.2368164E2,2.1202734E2,4.2595898E2,0E0,1.6206445E2,0E0,7.5694775E2,1.6296875E2,1.2471973E2,1.0188623E2,1.2287207E2,2.4729053E2,2.0204785E2,2.2057031E2,0E0,0E0,1.8302979E2,7.5746094E2,0E0,9.391172E2,1.9549219E2,0E0,3.3671094E2,1.1284473E2,2.0723828E2,0E0,0E0,0E0,0E0,0E0,2.6174219E3,4.9760742E2,3.1165312E3,6.63125E1,1.2570625E3,1.1276816E3,0E0,0E0,1.2519375E3,3.1003516E3,0E0,0E0,0E0,0E0,0E0,0E0,0E0,0E0,0E0,0E0,0E0,0E0,0E0,0E0,0E0,0E0,0E0,0E0,0E0,0E0,0E0,0E0,0E0,0E0,0E0,0E0,0E0,0E0,0E0,0E0,0E0,0E0,0E0,0E0,0E0,0E0,0E0,0E0,0E0,0E0,0E0,0E0,0E0,0E0,0E0,0E0,0E0,0E0,0E0,0E0,0E0,0E0,0E0,0E0,0E0,0E0,0E0,0E0,0E0,0E0,0E0,0E0,0E0,0E0,0E0,0E0,0E0,0E0,0E0,0E0,0E0,0E0,0E0,0E0,0E0,0E0,0E0,0E0,0E0,0E0,0E0,0E0,0E0,0E0,0E0,0E0,0E0,0E0,0E0,0E0,0E0,0E0,0E0,0E0,0E0,0E0,0E0,0E0,0E0,0E0,0E0,0E0,0E0,0E0,0E0,0E0,0E0,0E0,0E0,0E0],"parents":[2147483647,0,0,1,1,2,2,3,3,4,4,5,5,6,6,7,7,8,8,9,9,10,10,11,11,12,12,13,13,14,14,15,15,16,16,17,17,18,18,19,19,20,20,21,21,22,22,23,23,25,25,26,26,29,29,31,31,32,32,33,33,34,34,35,35,36,36,37,37,38,38,39,39,40,40,41,41,43,43,44,44,45,45,46,46,47,47,48,48,51,51,52,52,55,55,56,56,57,57,58,58,59,59,60,60,61,61,62,62,63,63,64,64,65,65,66,66,67,67,68,68,69,69,71,71,72,72,73,73,74,74,75,75,76,76,77,77,78,78,79,79,80,80,81,81,82,82,83,83,84,84,85,85,86,86,87,87,88,88,91,91,92,92,93,93,94,94,95,95,96,96,97,97,98,98,99,99,100,100,101,101,103,103,104,104,105,105,106,106,108,108,109,109,110,110,111,111,112,112,113,113,114,114,115,115,116,116,117,117,118,118,119,119,120,120,121,121,122,122,123,123,124,124,125,125,127,127,129,129,130,130,131,131,132,132,133,133,134,134,135,135,136,136,139,139,140,140,142,142,143,143,145,145,146,146,147,147,153,153,154,154,155,155,156,156,157,157,158,158,161,161,162,162],"right_children":[2,4,6,8,10,12,14,16,18,20,22,24,26,28,30,32,34,36,38,40,42,44,46,48,-1,50,52,-1,-1,54,-1,56,58,60,62,64,66,68,70,72,74,76,-1,78,80,82,84,86,88,-1,-1,90,92,-1,-1,94,96,98,100,102,104,106,108,110,112,114,116,118,120,122,-1,124,126,128,130,132,134,136,138,140,142,144,146,148,150,152,154,156,158,-1,-1,160,162,164,166,168,170,172,174,176,178,180,-1,182,184,186,188,-1,190,192,194,196,198,200,202,204,206,208,210,212,214,216,218,220,222,224,-1,226,-1,228,230,232,234,236,238,240,242,-1,-1,244,246,-1,248,250,-1,252,254,256,-1,-1,-1,-1,-1,258,260,262,264,266,268,-1,-1,270,272,-1,-1,-1,-1,-1,-1,-1,-1,-1,-1,-1,-1,-1,-1,-1,-1,-1,-1,-1,-1,-1,-1,-1,-1,-1,-1,-1,-1,-1,-1,-1,-1,-1,-1,-1,-1,-1,-1,-1,-1,-1,-1,-1,-1,-1,-1,-1,-1,-1,-1,-1,-1,-1,-1,-1,-1,-1,-1,-1,-1,-1,-1,-1,-1,-1,-1,-1,-1,-1,-1,-1,-1,-1,-1,-1,-1,-1,-1,-1,-1,-1,-1,-1,-1,-1,-1,-1,-1,-1,-1,-1,-1,-1,-1,-1,-1,-1,-1,-1,-1,-1,-1,-1,-1,-1,-1,-1,-1,-1,-1],"split_conditions":[9E0,3E0,5.9E1,1E0,5E0,4E0,6E1,3.0670166E-2,2E0,4E0,4E0,6E0,1E0,2.8295898E-1,2.69E2,3E0,2.5E-1,4.831543E-1,3E0,4E0,4.7045898E-1,6E0,9E0,8.75E-1,1.0460774E0,2E0,1.7E1,4.3913984E0,1.6384447E1,2.1972656E-1,3.2331684E0,2E0,2E0,8.331299E-2,2E0,2E0,3E0,4.7143555E-1,4.7045898E-1,5.605469E-1,1.0371094E0,4E0,3.8921222E-1,4E0,1.2324219E0,6E0,2.4E1,2.890625E-1,2.4E1,4.1885257E0,4.7003227E-1,2.7207031E0,1.8310547E0,9.84213E-1,7.5772446E-1,3.3E1,5.7E1,2.1E1,6E0,9E0,1E0,5.8E1,5.8E1,5.8E1,1.5E0,6.1E1,4E0,8.46875E1,9.628906E-1,4E0,2.531416E-1,2.1789551E-1,4.7045898E-1,3.852539E-1,2E0,9E0,1E1,9.628906E-1,4E0,2.685547E-1,2.1289062E-1,2.09375E0,2.4E1,1E1,5.9716797E-1,2.0935059E-1,6.611328E-1,2.3E1,9.145508E-1,6.490316E-1,4.9367958E-1,2.49E2,8.49E2,3.1E1,5.4E1,2.2E1,5.5E1,5.4E1,6.2E1,3.3E1,3.4E1,1.0871887E-2,9.578141E-2,4.7424316E-2,2E0,5.1904297E-1,1E0,1.521731E-1,2E0,1.9616699E-1,1E0,9E0,4E0,9.291992E-1,3.9765625E0,9E0,3.466797E-1,4E0,2E0,4.7045898E-1,6.1E1,1E0,1E1,4E0,1.2561035E-1,9.8E1,1.9836704E-1,2.2888184E-1,1.9776253E-1,1.8310547E0,2.4E1,8E0,3.8604736E-3,2.8320312E0,9.2041016E-1,5.4E1,2E0,2.7191627E-1,3.0932137E-1,5E0,6.7333984E-1,4.5376572E-1,2E0,2.5E1,3.7197575E-1,1.7E1,1E1,2.09375E0,5.2053237E-1,3.6856273E-1,2.962398E-1,2.1100144E-1,3.3502924E-1,5E0,4.5E1,1.7433167E-3,1.8095703E0,2.8E1,2.9E1,6.864255E-1,4.753538E-1,2.9E1,1.099E3,3.588499E-2,4.066003E-1,-7.169238E-3,6.604292E-2,1.4117287E-1,4.1947076E-1,-4.683183E-2,1.8633327E-1,3.946082E-3,9.366871E-2,-1.0475608E-2,1.1906014E-1,3.5936255E-2,-9.694098E-3,-2.4819244E-2,-1.3432562E-2,-2.1730585E-2,-1.8958567E-2,-1.2864962E-2,-1.7170347E-2,-1.1029668E-2,-3.992829E-3,-7.2988295E-3,-1.946418E-4,-1.2467167E-2,-3.7052736E-3,5.819514E-3,2.1330545E-2,4.2222063E-3,1.5798172E-2,-3.5016981E-3,9.245346E-3,1.0925083E-2,2.9801194E-2,4.2119257E-2,7.968772E-2,1.6493127E-2,3.129086E-2,7.231122E-2,1.5027227E-1,3.6194824E-2,6.2154897E-2,8.8391475E-2,1.3209958E-1,3.400901E-2,5.143666E-2,2.0806879E-2,5.4699164E-2,5.053125E-2,1.105132E-1,6.965719E-2,1.3100155E-1,7.2631404E-2,1.0577972E-1,1.2646893E-1,2.2657166E-1,4.700986E-2,7.638345E-2,9.300234E-2,6.559962E-2,1.2090552E-1,9.3763895E-2,9.365896E-2,1.2269256E-1,1.7115308E-1,3.3356926E-1,1.6001113E-1,1.2582192E-1,1.1471595E-1,1.5092458E-1,2.5577444E-1,1.7896247E-1,1.7843468E-1,2.4291857E-1,2.1672073E-1,3.1971225E-1,1.5173689E-1,2.0389509E-1,2.4074304E-1,1.8641154E-1,9.5996715E-2,1.812802E-1,2.6135677E-1,1.9617519E-1,3.5201874E-1,2.5581607E-1,2.5224778E-1,1.9031288E-1,3.0041558E-1,3.6903116E-1,2.4974819E-1,3.094784E-1,3.4555238E-1,4.558692E-1,3.2611826E-1,5.725816E-1,3.451505E-1,4.895257E-1,7.004429E-1,5.605354E-1,1.1588628E0,1.0485784E0,4.6384922E-1,6.348218E-1,3.9382237E-1,6.03409E-1,1.9118525E0,1.6003007E0,9.7282165E-1,5.497684E-1],"split_indices":[8,8,5,8,8,38,5,28,8,11,11,4,7,26,51,4,38,38,11,8,17,8,12,38,0,4,0,0,0,28,0,4,7,38,11,11,11,38,17,38,38,8,0,38,38,8,0,33,0,0,0,28,28,0,0,1,5,1,5,12,11,51,51,51,47,5,12,51,38,12,0,38,17,17,4,12,11,38,7,38,28,42,0,11,26,38,28,0,28,0,0,51,51,1,1,5,1,5,5,1,5,38,0,26,11,38,11,0,12,33,47,5,11,38,33,5,17,4,47,17,5,38,11,4,26,51,0,38,0,28,0,5,57,42,42,5,4,0,0,5,28,0,4,0,0,0,11,42,0,0,0,0,0,5,1,36,38,1,0,0,0,1,51,0,0,0,0,0,0,0,0,0,0,0,0,0,0,0,0,0,0,0,0,0,0,0,0,0,0,0,0,0,0,0,0,0,0,0,0,0,0,0,0,0,0,0,0,0,0,0,0,0,0,0,0,0,0,0,0,0,0,0,0,0,0,0,0,0,0,0,0,0,0,0,0,0,0,0,0,0,0,0,0,0,0,0,0,0,0,0,0,0,0,0,0,0,0,0,0,0,0,0,0,0,0,0,0,0,0,0,0,0,0],"split_type":[0,0,0,0,0,0,0,0,0,0,0,0,0,0,0,0,0,0,0,0,0,0,0,0,0,0,0,0,0,0,0,0,0,0,0,0,0,0,0,0,0,0,0,0,0,0,0,0,0,0,0,0,0,0,0,0,0,0,0,0,0,0,0,0,0,0,0,0,0,0,0,0,0,0,0,0,0,0,0,0,0,0,0,0,0,0,0,0,0,0,0,0,0,0,0,0,0,0,0,0,0,0,0,0,0,0,0,0,0,0,0,0,0,0,0,0,0,0,0,0,0,0,0,0,0,0,0,0,0,0,0,0,0,0,0,0,0,0,0,0,0,0,0,0,0,0,0,0,0,0,0,0,0,0,0,0,0,0,0,0,0,0,0,0,0,0,0,0,0,0,0,0,0,0,0,0,0,0,0,0,0,0,0,0,0,0,0,0,0,0,0,0,0,0,0,0,0,0,0,0,0,0,0,0,0,0,0,0,0,0,0,0,0,0,0,0,0,0,0,0,0,0,0,0,0,0,0,0,0,0,0,0,0,0,0,0,0,0,0,0,0,0,0,0,0,0,0,0,0,0,0,0,0,0,0,0,0,0,0,0,0,0,0,0,0,0,0,0,0,0,0,0,0],"sum_hessian":[4.946499E6,4.924797E6,2.1702E4,4.81419E6,1.10607E5,1.998E4,1.722E3,4.220875E6,5.93315E5,7.4153E4,3.6454E4,1.6349E4,3.631E3,7.01E2,1.021E3,3.06324E5,3.914551E6,4.69438E5,1.23877E5,6.2056E4,1.2097E4,2.7254E4,9.2E3,1.5875E4,4.74E2,6.67E2,2.964E3,4.01E2,3E2,7.04E2,3.17E2,1.49521E5,1.56803E5,2.911765E6,1.002786E6,3.0043E5,1.69008E5,1.06833E5,1.7044E4,4.1602E4,2.0454E4,1.1761E4,3.36E2,1.1666E4,1.5588E4,7.382E3,1.818E3,4.908E3,1.0967E4,3.3E2,3.37E2,1.005E3,1.959E3,3.51E2,3.53E2,9.2649E4,5.6872E4,3.7567E4,1.19236E5,1.473815E6,1.43795E6,9.1645E5,8.6336E4,2.78592E5,2.1838E4,1.49197E5,1.9811E4,5.1127E4,5.5706E4,1.6586E4,4.58E2,1.7374E4,2.4228E4,1.2807E4,7.647E3,7.058E3,4.703E3,1.1039E4,6.27E2,9.472E3,6.116E3,2.868E3,4.514E3,1.173E3,6.45E2,6.61E2,4.247E3,7.275E3,3.692E3,4.23E2,5.82E2,6.14E2,1.345E3,3.9499E4,5.315E4,3.4041E4,2.2831E4,1.2625E4,2.4942E4,1.5581E4,1.03655E5,1.473398E6,4.17E2,1.272909E6,1.65041E5,2.08238E5,7.08212E5,3.41E2,8.5995E4,8.6888E4,1.91704E5,1.8189E4,3.649E3,1.47048E5,2.149E3,1.6146E4,3.665E3,2.2387E4,2.874E4,3.1053E4,2.4653E4,1.3252E4,3.334E3,6.038E3,1.1336E4,2.3692E4,5.36E2,1.2389E4,4.18E2,1.606E3,6.041E3,6.334E3,7.24E2,3.493E3,1.21E3,6.296E3,4.743E3,3.22E2,3.05E2,1.597E3,7.875E3,3.14E2,5.802E3,2.513E3,3.55E2,2.966E3,1.548E3,7.51E2,4.22E2,3.01E2,3.44E2,3.08E2,3.53E2,2.991E3,1.256E3,6.657E3,6.18E2,1.959E3,1.733E3,3.1E2,3.04E2,6.41E2,7.04E2,3.7973E4,1.526E3,4.4189E4,8.961E3,2.5495E4,8.546E3,2.0762E4,2.069E3,1.0277E4,2.348E3,2.4632E4,3.1E2,5.446E3,1.0135E4,4.6483E4,5.7172E4,7.93887E5,6.79511E5,2.98804E5,9.74105E5,1.30819E5,3.4222E4,1.15507E5,9.2731E4,5.54985E5,1.53227E5,6.7202E4,1.8793E4,4.6492E4,4.0396E4,1.61285E5,3.0419E4,1.0428E4,7.761E3,2.818E3,8.31E2,8.9799E4,5.7249E4,1.456E3,6.93E2,4.311E3,1.1835E4,2.42E3,1.245E3,1.3839E4,8.548E3,2.5856E4,2.884E3,3.029E4,7.63E2,2.3741E4,9.12E2,7.956E3,5.296E3,2.991E3,3.43E2,3.681E3,2.357E3,5.834E3,5.502E3,1.0117E4,1.3575E4,2.405E3,9.984E3,1.23E3,3.76E2,3.79E3,2.251E3,1.19E3,5.144E3,3.35E2,3.89E2,3.158E3,3.35E2,8.84E2,3.26E2,5.424E3,8.72E2,9.5E2,3.793E3,3.18E2,1.279E3,5.105E3,2.77E3,1.325E3,4.477E3,1.77E3,7.43E2,1.393E3,1.573E3,1.055E3,4.93E2,4.39E2,3.12E2,5.28E2,2.463E3,9.22E2,3.34E2,3.914E3,2.743E3,3.13E2,3.05E2,6.7E2,1.289E3,1.414E3,3.19E2,3.15E2,3.26E2,3.55E2,3.49E2],"tree_param":{"num_deleted":"0","num_feature":"61","num_nodes":"273","size_leaf_vector":"1"}},{"base_weights":[-5.3348584E-4,-4.039738E-2,8.995767E0,-7.452824E-2,1.4465728E0,6.1303287E0,4.283595E1,-1.1167691E-1,1.8983255E-1,1.0784351E0,2.1973748E0,5.603583E0,9.902246E0,1.3823704E1,8.442805E1,2.1820974E-1,-1.3741791E-1,1.1665158E-1,5.55385E-1,9.6270573E-1,1.4488444E0,1.8032718E0,2.4743843E0,6.83624E0,5.1151037E0,6.705084E0,3.0280833E0,7.9070344E0,2.3784966E0,3.558286E0,1.483091E1,4.5284113E-1,4.7121614E-2,-1.538264E-1,1.1867931E-2,6.1782237E-2,3.7883604E-1,4.354559E-1,7.669394E-1,1.5071963E0,8.812838E-1,8.509549E-1,1.6002086E0,2.501601E0,1.7022781E0,2.894816E0,2.1793292E0,9.152768E0,5.1000953E0,4.3574734E0,6.0324774E0,5.433475E0,1.421801E0,1.0858185E0,4.7870347E-1,1.9049129E-1,1.2058288E0,-1.6568305E-1,1.9649935E-1,-1.6490738E-1,-1.1110686E-1,-2.6912423E-2,1.5886493E-1,3.7223485E-1,4.2569235E-2,8.9783484E-1,3.1933227E-1,3.1210095E-1,5.4232025E-1,6.57375E-1,1.0124503E0,1.2048931E0,2.1680439E0,7.7490884E-1,1.1295359E0,7.165274E-1,1.470945E0,1.5398108E0,2.2783725E0,4.206297E-1,2.1473503E0,1.4250351E0,2.0446093E0,2.1775942E0,3.0771842E0,1.9975619E0,2.6353753E0,1.7138156E0,7.8197894E0,3.9245346E0,7.1603346E0,3.8349113E0,5.6447167E0,8.0867E0,5.137779E0,4.1751175E0,8.787446E-1,2.5265107E-1,-4.499306E-1,2.0846379E0,6.1157995E-1,-3.0262765E-1,-7.248769E-2,1.8653445E0,1.1034968E-1,-1.2103445E-1,-1.6860299E-1,-1.2466298E-1,-5.8485903E-2,-5.807435E-2,2.2609191E-2,1.1231584E-1,3.373047E-1,3.0120993E-1,6.289281E-1,-1.4824546E-3,1.5970577E-1,7.313855E-1,1.3439472E0,2.2012538E-1,4.510369E-1,2.3891936E-1,4.5762673E-1,5.016246E-1,9.089744E-1,6.113773E-1,1.0800216E0,7.746133E-1,1.1439342E0,1.010856E0,2.2521E0,3.2339475E-1,1.8650888E0,5.834041E-1,9.2238253E-1,2.4087536E-1,1.0942526E0,1.2642807E-1,6.2909704E-1,2.0359288E-1,8.568417E-2,1.3604966E0,1.7711191E0,3.1890517E-1,1.9502898E0,1.3165171E-1,2.505143E0,1.3129652E0,1.7559402E0,2.5614433E0,1.6900715E0,2.67088E0,1.536693E0,4.832886E-1,2.9834435E0,2.5576973E0,1.7829455E0,4.190734E-1,2.4900177E0,6.753512E0,1.3163995E0,3.436433E0,5.00869E-1,5.3169024E-1,8.737033E-1,4.38105E0,3.2947018E0,3.8953888E0,7.0101485E0,4.2713913E-1,9.055382E0,3.8396883E0,6.155242E0,3.454189E0,6.446854E-1,1.3625117E-2,5.5245157E-2,-4.7720324E-2,-4.3048367E-2,1.5340067E-1,1.0586206E0,8.831176E-2,-2.3663012E-2,-1.8479144E-2,-3.5821144E-2,2.4797844E-2,-2.4765043E-2,3.1639427E-1,9.8947875E-2,-1.4692814E-3,4.0274154E-2,-9.3875155E-3,-2.6624551E-2,-1.7888844E-2,-1.5340445E-2,-9.298998E-3,-1.3138725E-2,-1.2257262E-2,-3.1427462E-3,-6.650587E-3,-2.0078847E-5,-5.3759324E-3,4.130272E-3,5.240019E-3,1.7769262E-2,3.129683E-2,1.6062102E-1,2.551109E-2,6.639435E-2,1.01437114E-1,5.167314E-2,-3.8803834E-3,7.411316E-3,7.6077725E-3,2.4014067E-2,6.3741975E-2,1.3371609E-1,1.741132E-1,1.00562334E-1,1.3325906E-2,3.134041E-2,4.084626E-2,6.4278774E-2,2.0491647E-2,4.2848498E-2,3.3028115E-2,5.7678938E-2,4.1727163E-2,6.438372E-2,7.771783E-2,1.1799804E-1,5.4047287E-2,7.938288E-2,8.278189E-2,1.4246702E-1,1.1281313E-1,6.664022E-2,1.09607235E-1,2.187063E-1,1.4534298E-1,8.4998295E-2,1.4502357E-1,2.841889E-1,2.1484628E-1,1.4899625E-1,4.5129653E-2,6.7961596E-2,8.0657564E-2,1.0711086E-1,1.0255152E-1,1.5673308E-1,2.1284582E-2,6.8640895E-2,1.2871286E-1,1.8414235E-1,1.9190638E-1,1.4443688E-1,1.0444577E-1,2.566484E-1,1.778254E-1,3.09988E-1,1.4883685E-1,1.1705422E-1,1.5379074E-1,2.2335339E-1,2.1681622E-1,2.8978586E-1,7.845128E-2,1.9089983E-1,1.936898E-1,3.255918E-1,1.1020791E-1,2.0872009E-1,2.8532356E-1,3.8506076E-1,1.9818275E-1,3.594756E-1,1.3983998E-1,2.1007709E-1,3.1669065E-1,2.3609196E-1,8.757822E-1,5.725034E-1,3.9030555E-1,2.5638974E-1,3.0942035E-1,4.8293176E-1,2.8461614E-1,4.6080896E-1,2.5483802E-1,4.6506438E-1,8.870085E-1,6.108928E-1,1.2216167E0,8.160221E-1,4.013969E-1,3.0456048E-1,5.461301E-1,9.0455323E-1,4.4568872E-1,2.9372087E-1],"categories":[],"categories_nodes":[],"categories_segments":[],"categories_sizes":[],"default_left":[0,0,0,0,0,0,0,0,0,0,0,0,0,0,0,0,0,0,0,0,0,0,0,0,0,0,0,0,0,0,0,0,0,0,0,0,0,0,0,0,0,0,0,0,0,0,0,0,0,0,0,0,0,0,0,0,0,0,0,0,0,0,0,0,0,0,0,0,0,0,0,0,0,0,0,0,0,0,0,0,0,0,0,0,0,0,0,0,0,0,0,0,0,0,0,0,0,0,0,0,0,0,0,0,0,0,0,0,0,0,0,0,0,0,0,0,0,0,0,0,0,0,0,0,0,0,0,0,0,0,0,0,0,0,0,0,0,0,0,0,0,0,0,0,0,0,0,0,0,0,0,0,0,0,0,0,0,0,0,0,0,0,0,0,0,0,0,0,0,0,0,0,0,0,0,0,0,0,0,0,0,0,0,0,0,0,0,0,0,0,0,0,0,0,0,0,0,0,0,0,0,0,0,0,0,0,0,0,0,0,0,0,0,0,0,0,0,0,0,0,0,0,0,0,0,0,0,0,0,0,0,0,0,0,0,0,0,0,0,0,0,0,0,0,0,0,0,0,0,0,0,0,0,0,0,0,0,0,0,0,0,0,0,0,0,0,0,0,0,0,0,0,0,0,0,0,0,0,0,0,0,0,0,0,0,0,0,0,0,0,0,0,0,0,0,0,0,0,0,0,0],"id":5,"left_children":[1,3,5,7,9,11,13,15,17,19,21,23,25,27,29,31,33,35,37,39,41,43,45,47,49,51,-1,53,-1,-1,-1,55,57,59,61,63,65,67,69,71,73,75,77,79,81,83,85,87,89,91,93,95,-1,-1,-1,97,99,101,103,105,107,109,111,113,115,117,119,121,123,125,127,129,131,133,135,137,139,141,143,-1,145,147,149,151,153,155,157,-1,159,161,163,165,167,169,171,173,-1,175,177,179,181,183,185,187,189,191,193,195,197,199,201,203,205,207,209,211,213,215,217,219,221,223,225,227,229,231,233,235,237,239,241,-1,243,245,247,-1,249,-1,251,-1,-1,253,255,-1,257,-1,259,261,263,265,267,269,271,-1,273,275,277,-1,279,281,-1,283,-1,-1,-1,285,287,289,291,-1,293,295,297,299,-1,-1,-1,-1,-1,-1,-1,-1,-1,-1,-1,-1,-1,-1,-1,-1,-1,-1,-1,-1,-1,-1,-1,-1,-1,-1,-1,-1,-1,-1,-1,-1,-1,-1,-1,-1,-1,-1,-1,-1,-1,-1,-1,-1,-1,-1,-1,-1,-1,-1,-1,-1,-1,-1,-1,-1,-1,-1,-1,-1,-1,-1,-1,-1,-1,-1,-1,-1,-1,-1,-1,-1,-1,-1,-1,-1,-1,-1,-1,-1,-1,-1,-1,-1,-1,-1,-1,-1,-1,-1,-1,-1,-1,-1,-1,-1,-1,-1,-1,-1,-1,-1,-1,-1,-1,-1,-1,-1,-1,-1,-1,-1,-1,-1,-1,-1,-1,-1,-1,-1,-1,-1,-1,-1,-1,-1,-1],"loss_changes":[1.7746052E6,2.5002742E5,2.1165255E6,4.729582E4,3.0551281E4,3.9933688E4,2.0550162E6,3.5856574E4,1.5873436E4,3.1782812E3,3.9658438E3,1.06004375E4,1.604007E5,5.9044094E4,2.17892E6,1.2269138E4,9.594781E3,7.1123022E3,2.510791E3,2.5044023E3,1.5964883E3,1.0546992E3,2.6426719E3,2.0102656E4,8.768594E3,2.029082E4,0E0,5.7672227E3,0E0,0E0,0E0,2.546051E4,5.6187695E3,1.6705469E3,2.2112139E3,2.438585E3,2.6420107E3,8.3252637E2,9.625176E2,1.4659434E3,1.2975977E3,2.9639966E2,5.7353125E2,1.1353379E3,1.2423867E3,1.1447109E3,1.0352266E3,2.2698125E4,6.913172E3,4.642625E3,1.0473141E4,7.665711E3,0E0,0E0,0E0,3.805168E3,1.739007E4,9.3038416E2,1.4931076E4,4.543203E2,5.1849023E2,4.736384E2,6.725243E2,4.3421533E2,1.9866812E3,6.524614E2,1.00286035E3,3.1218555E2,5.045537E2,4.807119E2,3.4457227E2,1.0230552E3,7.38624E2,9.716621E2,6.6296875E2,1.3976257E2,2.185741E2,5.3425977E2,3.37375E2,0E0,4.6370703E2,2.6666797E2,1.0710918E3,5.61167E2,1.1402812E3,1.0748438E3,7.97584E2,0E0,1.0396156E4,9.495957E2,2.9763438E3,1.4415391E3,4.749867E3,6.369867E3,5.2435547E3,2.1543125E3,0E0,3.0404087E3,4.279785E0,6.2871383E4,4.576456E3,1.9329004E2,2.4351985E3,5.7953223E3,3.610738E3,8.5857056E2,4.039922E2,1.2308203E2,2.5819638E2,9.192279E1,1.6923102E2,2.5154639E2,5.1681006E2,3.1194092E2,2.227522E2,7.8938635E2,7.077627E2,3.6407593E2,3.1941016E2,3.5473022E2,2.689585E2,1.2569507E2,1.4868994E2,3.652036E2,1.1980835E2,2.8848535E2,2.0995264E2,1.4981812E2,3.5267773E2,3.0199805E2,3.6854785E2,0E0,1.8792822E2,1.9008154E2,3.3406445E2,0E0,4.65125E2,0E0,6.0281433E1,0E0,0E0,2.5496094E2,2.7020898E2,0E0,4.7064624E2,0E0,4.68729E2,1.3370703E2,1.8733301E2,3.0939746E2,6.89209E2,4.2696533E2,1.8432117E2,0E0,7.4134375E2,1.4769453E3,7.908711E2,0E0,2.7835938E2,3.116164E3,0E0,5.0421777E2,0E0,0E0,0E0,1.398918E3,1.4508145E3,8.8238574E2,1.8265234E3,0E0,3.8105625E3,2.3065625E2,4.4313125E3,5.109873E2,0E0,0E0,0E0,0E0,0E0,0E0,0E0,0E0,0E0,0E0,0E0,0E0,0E0,0E0,0E0,0E0,0E0,0E0,0E0,0E0,0E0,0E0,0E0,0E0,0E0,0E0,0E0,0E0,0E0,0E0,0E0,0E0,0E0,0E0,0E0,0E0,0E0,0E0,0E0,0E0,0E0,0E0,0E0,0E0,0E0,0E0,0E0,0E0,0E0,0E0,0E0,0E0,0E0,0E0,0E0,0E0,0E0,0E0,0E0,0E0,0E0,0E0,0E0,0E0,0E0,0E0,0E0,0E0,0E0,0E0,0E0,0E0,0E0,0E0,0E0,0E0,0E0,0E0,0E0,0E0,0E0,0E0,0E0,0E0,0E0,0E0,0E0,0E0,0E0,0E0,0E0,0E0,0E0,0E0,0E0,0E0,0E0,0E0,0E0,0E0,0E0,0E0,0E0,0E0,0E0,0E0,0E0,0E0,0E0,0E0,0E0,0E0,0E0,0E0,0E0,0E0,0E0,0E0,0E0,0E0,0E0,0E0,0E0,0E0,0E0,0E0,0E0],"parents":[2147483647,0,0,1,1,2,2,3,3,4,4,5,5,6,6,7,7,8,8,9,9,10,10,11,11,12,12,13,13,14,14,15,15,16,16,17,17,18,18,19,19,20,20,21,21,22,22,23,23,24,24,25,25,27,27,31,31,32,32,33,33,34,34,35,35,36,36,37,37,38,38,39,39,40,40,41,41,42,42,43,43,44,44,45,45,46,46,47,47,48,48,49,49,50,50,51,51,55,55,56,56,57,57,58,58,59,59,60,60,61,61,62,62,63,63,64,64,65,65,66,66,67,67,68,68,69,69,70,70,71,71,72,72,73,73,74,74,75,75,76,76,77,77,78,78,80,80,81,81,82,82,83,83,84,84,85,85,86,86,88,88,89,89,90,90,91,91,92,92,93,93,94,94,95,95,97,97,98,98,99,99,100,100,101,101,102,102,103,103,104,104,105,105,106,106,107,107,108,108,109,109,110,110,111,111,112,112,113,113,114,114,115,115,116,116,117,117,118,118,119,119,120,120,121,121,122,122,123,123,124,124,125,125,126,126,127,127,128,128,129,129,130,130,132,132,133,133,134,134,136,136,138,138,141,141,142,142,144,144,146,146,147,147,148,148,149,149,150,150,151,151,152,152,154,154,155,155,156,156,158,158,159,159,161,161,165,165,166,166,167,167,168,168,170,170,171,171,172,172,173,173],"right_children":[2,4,6,8,10,12,14,16,18,20,22,24,26,28,30,32,34,36,38,40,42,44,46,48,50,52,-1,54,-1,-1,-1,56,58,60,62,64,66,68,70,72,74,76,78,80,82,84,86,88,90,92,94,96,-1,-1,-1,98,100,102,104,106,108,110,112,114,116,118,120,122,124,126,128,130,132,134,136,138,140,142,144,-1,146,148,150,152,154,156,158,-1,160,162,164,166,168,170,172,174,-1,176,178,180,182,184,186,188,190,192,194,196,198,200,202,204,206,208,210,212,214,216,218,220,222,224,226,228,230,232,234,236,238,240,242,-1,244,246,248,-1,250,-1,252,-1,-1,254,256,-1,258,-1,260,262,264,266,268,270,272,-1,274,276,278,-1,280,282,-1,284,-1,-1,-1,286,288,290,292,-1,294,296,298,300,-1,-1,-1,-1,-1,-1,-1,-1,-1,-1,-1,-1,-1,-1,-1,-1,-1,-1,-1,-1,-1,-1,-1,-1,-1,-1,-1,-1,-1,-1,-1,-1,-1,-1,-1,-1,-1,-1,-1,-1,-1,-1,-1,-1,-1,-1,-1,-1,-1,-1,-1,-1,-1,-1,-1,-1,-1,-1,-1,-1,-1,-1,-1,-1,-1,-1,-1,-1,-1,-1,-1,-1,-1,-1,-1,-1,-1,-1,-1,-1,-1,-1,-1,-1,-1,-1,-1,-1,-1,-1,-1,-1,-1,-1,-1,-1,-1,-1,-1,-1,-1,-1,-1,-1,-1,-1,-1,-1,-1,-1,-1,-1,-1,-1,-1,-1,-1,-1,-1,-1,-1,-1,-1,-1,-1,-1,-1],"split_conditions":[9E0,3E0,5.9E1,1E0,5E0,3.8671875E0,2.1621094E0,4.7424316E-2,2E0,4E0,6E0,-2.5634766E-2,5.4E1,3.8691406E0,2.7661133E-1,3.3E1,1E0,2E0,8.75E-1,6.945801E-2,2.692871E-1,6.945801E-2,-6.6986084E-3,8.496094E-2,6.5478516E-1,4.2163086E-1,3.0280833E0,6.37207E-2,2.3784966E0,3.558286E0,1.483091E1,2.5E1,4.2E1,2.5146484E-1,2E0,4.7424316E-2,4.7424316E-2,8E0,4E0,4.9829102E-1,4E0,4.3E1,3.8691406E0,-1.574707E-2,4E0,-2.9663086E-1,1.3486328E0,-1.01379395E-1,9E0,6.6503906E-1,4.7424316E-2,4.5E1,1.421801E0,1.0858185E0,4.7870347E-1,6.1E1,1.5E1,3.5E1,4.3E1,4.7424316E-2,7.0751953E-1,3.3325195E-1,5.3808594E-1,5.239258E-1,1E0,4.9829102E-1,5E-1,2E0,4.284668E-1,3.9941406E-1,1.5686035E-1,4E1,-1.2809753E-2,5.1416016E-1,-2.4487305E-1,-1.878357E-2,9.399414E-3,4E0,3.7719727E-1,4.206297E-1,2.4E1,1.4296875E0,-6.6986084E-3,3.3642578E-1,-1.9006348E-1,6.945801E-2,2.1240234E-1,1.7138156E0,4.5E1,6E0,-1.4221191E-1,6.945801E-2,9E0,7E0,9E0,1.0107422E0,8.787446E-1,3.4E1,1.2E1,1.4E1,5.9E1,-4.7875977E-1,3.9E1,1.5E1,5.4E1,5.9E1,9.7351074E-2,2.2741699E-1,-1.730957E-1,4.2E1,-2.4609375E-1,3.125E-1,2.1601562E0,5.4E1,-1.2809753E-2,3.815918E-1,8E0,4.4E1,8E0,8E0,1.1445312E0,3.6694336E-1,2.536621E-1,2E0,4.3E1,1.1445312E0,2E0,-3.56102E-3,5.058594E-1,-4.59671E-3,1.998291E-1,3.2339475E-1,9E0,8E0,2E0,2.4087536E-1,1.3818359E0,1.2642807E-1,1.4E1,2.0359288E-1,8.568417E-2,1.5224609E0,1.8875122E-2,3.1890517E-1,7.163086E-1,1.3165171E-1,3.642578E-1,-9.124756E-3,1.697998E-1,6E0,9.725E1,9.042969E-1,4E0,4.832886E-1,1.4824219E0,5.888672E-1,1.9384766E-1,4.190734E-1,-1.2634277E-1,4.7424316E-2,1.3163995E0,3.3666992E-1,5.00869E-1,5.3169024E-1,8.737033E-1,2.290039E-1,5.4E1,4E0,8.2470703E-1,4.2713913E-1,-1.531601E-3,3.166504E-1,3.7036133E-1,5.576172E-1,6.446854E-1,1.3625117E-2,5.5245157E-2,-4.7720324E-2,-4.3048367E-2,1.5340067E-1,1.0586206E0,8.831176E-2,-2.3663012E-2,-1.8479144E-2,-3.5821144E-2,2.4797844E-2,-2.4765043E-2,3.1639427E-1,9.8947875E-2,-1.4692814E-3,4.0274154E-2,-9.3875155E-3,-2.6624551E-2,-1.7888844E-2,-1.5340445E-2,-9.298998E-3,-1.3138725E-2,-1.2257262E-2,-3.1427462E-3,-6.650587E-3,-2.0078847E-5,-5.3759324E-3,4.130272E-3,5.240019E-3,1.7769262E-2,3.129683E-2,1.6062102E-1,2.551109E-2,6.639435E-2,1.01437114E-1,5.167314E-2,-3.8803834E-3,7.411316E-3,7.6077725E-3,2.4014067E-2,6.3741975E-2,1.3371609E-1,1.741132E-1,1.00562334E-1,1.3325906E-2,3.134041E-2,4.084626E-2,6.4278774E-2,2.0491647E-2,4.2848498E-2,3.3028115E-2,5.7678938E-2,4.1727163E-2,6.438372E-2,7.771783E-2,1.1799804E-1,5.4047287E-2,7.938288E-2,8.278189E-2,1.4246702E-1,1.1281313E-1,6.664022E-2,1.09607235E-1,2.187063E-1,1.4534298E-1,8.4998295E-2,1.4502357E-1,2.841889E-1,2.1484628E-1,1.4899625E-1,4.5129653E-2,6.7961596E-2,8.0657564E-2,1.0711086E-1,1.0255152E-1,1.5673308E-1,2.1284582E-2,6.8640895E-2,1.2871286E-1,1.8414235E-1,1.9190638E-1,1.4443688E-1,1.0444577E-1,2.566484E-1,1.778254E-1,3.09988E-1,1.4883685E-1,1.1705422E-1,1.5379074E-1,2.2335339E-1,2.1681622E-1,2.8978586E-1,7.845128E-2,1.9089983E-1,1.936898E-1,3.255918E-1,1.1020791E-1,2.0872009E-1,2.8532356E-1,3.8506076E-1,1.9818275E-1,3.594756E-1,1.3983998E-1,2.1007709E-1,3.1669065E-1,2.3609196E-1,8.757822E-1,5.725034E-1,3.9030555E-1,2.5638974E-1,3.0942035E-1,4.8293176E-1,2.8461614E-1,4.6080896E-1,2.5483802E-1,4.6506438E-1,8.870085E-1,6.108928E-1,1.2216167E0,8.160221E-1,4.013969E-1,3.0456048E-1,5.461301E-1,9.0455323E-1,4.4568872E-1,2.9372087E-1],"split_indices":[8,8,5,8,8,35,31,23,9,9,8,53,1,40,23,1,9,8,35,24,35,24,53,31,23,54,0,30,0,0,0,1,1,35,9,24,24,5,9,23,8,5,40,53,9,53,35,54,9,35,24,5,0,0,0,5,5,1,1,24,25,35,42,23,9,23,35,8,54,54,31,5,53,35,54,53,53,8,25,0,1,40,53,16,54,24,30,0,5,9,53,24,9,5,9,23,0,5,1,5,5,54,1,5,1,5,40,30,53,5,53,35,30,5,53,35,5,5,5,5,42,42,40,8,5,42,8,53,54,53,23,0,5,5,9,0,42,0,1,0,0,42,53,0,23,0,23,53,54,9,50,40,9,0,31,23,30,0,54,24,0,16,0,0,0,23,5,9,30,0,53,16,54,31,0,0,0,0,0,0,0,0,0,0,0,0,0,0,0,0,0,0,0,0,0,0,0,0,0,0,0,0,0,0,0,0,0,0,0,0,0,0,0,0,0,0,0,0,0,0,0,0,0,0,0,0,0,0,0,0,0,0,0,0,0,0,0,0,0,0,0,0,0,0,0,0,0,0,0,0,0,0,0,0,0,0,0,0,0,0,0,0,0,0,0,0,0,0,0,0,0,0,0,0,0,0,0,0,0,0,0,0,0,0,0,0,0,0,0,0,0,0,0,0,0,0,0,0,0,0,0],"split_type":[0,0,0,0,0,0,0,0,0,0,0,0,0,0,0,0,0,0,0,0,0,0,0,0,0,0,0,0,0,0,0,0,0,0,0,0,0,0,0,0,0,0,0,0,0,0,0,0,0,0,0,0,0,0,0,0,0,0,0,0,0,0,0,0,0,0,0,0,0,0,0,0,0,0,0,0,0,0,0,0,0,0,0,0,0,0,0,0,0,0,0,0,0,0,0,0,0,0,0,0,0,0,0,0,0,0,0,0,0,0,0,0,0,0,0,0,0,0,0,0,0,0,0,0,0,0,0,0,0,0,0,0,0,0,0,0,0,0,0,0,0,0,0,0,0,0,0,0,0,0,0,0,0,0,0,0,0,0,0,0,0,0,0,0,0,0,0,0,0,0,0,0,0,0,0,0,0,0,0,0,0,0,0,0,0,0,0,0,0,0,0,0,0,0,0,0,0,0,0,0,0,0,0,0,0,0,0,0,0,0,0,0,0,0,0,0,0,0,0,0,0,0,0,0,0,0,0,0,0,0,0,0,0,0,0,0,0,0,0,0,0,0,0,0,0,0,0,0,0,0,0,0,0,0,0,0,0,0,0,0,0,0,0,0,0,0,0,0,0,0,0,0,0,0,0,0,0,0,0,0,0,0,0,0,0,0,0,0,0,0,0,0,0,0,0,0,0,0,0,0,0],"sum_hessian":[4.948322E6,4.926493E6,2.1829E4,4.815952E6,1.10541E5,2.0126E4,1.703E3,4.222584E6,5.93368E5,7.4174E4,3.6367E4,1.7662E4,2.464E3,1.004E3,6.99E2,3.05638E5,3.916946E6,4.94395E5,9.8973E4,5.6519E4,1.7655E4,1.5014E4,2.1353E4,5.009E3,1.2653E4,2.131E3,3.33E2,6.31E2,3.73E2,3.97E2,3.02E2,1.28884E5,1.76754E5,3.529056E6,3.8789E5,4.08836E5,8.5559E4,6.3167E4,3.5806E4,7.35E3,4.9169E4,3.568E3,1.4087E4,1.894E3,1.312E4,8.802E3,1.2551E4,2.144E3,2.865E3,6.933E3,5.72E3,1.824E3,3.07E2,3.23E2,3.08E2,9.5583E4,3.3301E4,7.29E4,1.03854E5,2.802194E6,7.26862E5,3.0692E5,8.097E4,2.3826E4,3.8501E5,8.799E3,7.676E4,2.9323E4,3.3844E4,2.476E4,1.1046E4,5.045E3,2.305E3,3.4423E4,1.4746E4,2.934E3,6.34E2,1.2938E4,1.149E3,3.24E2,1.57E3,7.252E3,5.868E3,1.787E3,7.015E3,8.978E3,3.573E3,3.05E2,1.839E3,1.826E3,1.039E3,4.934E3,1.999E3,1.733E3,3.987E3,1.328E3,4.96E2,8.7127E4,8.456E3,1.3433E4,1.9868E4,2.952E4,4.338E4,5.097E3,9.8757E4,2.17705E5,2.584489E6,5.77966E5,1.48896E5,1.8838E5,1.1854E5,6.4219E4,1.6751E4,1.8664E4,5.162E3,2.7979E5,1.0522E5,6.41E3,2.389E3,4.3783E4,3.2977E4,1.9513E4,9.81E3,3.0465E4,3.379E3,2.2332E4,2.428E3,3.935E3,7.111E3,4.258E3,7.87E2,5.08E2,1.797E3,1.4978E4,1.9445E4,3.94E2,1.4352E4,4.02E2,2.532E3,3.29E2,3.05E2,7.292E3,5.646E3,3.02E2,8.47E2,4.74E2,1.096E3,5.421E3,1.831E3,2.385E3,3.483E3,1.008E3,7.79E2,3.53E2,6.662E3,2.484E3,6.494E3,3.03E2,3.27E3,1.535E3,3.04E2,1.262E3,5.64E2,4.81E2,5.58E2,2.45E3,2.484E3,8.78E2,1.121E3,3.52E2,1.381E3,1.754E3,2.233E3,1.01E3,3.18E2,6.2761E4,2.4366E4,3.51E3,4.946E3,1.2617E4,8.16E2,1.505E4,4.818E3,9.463E3,2.0057E4,1.5331E4,2.8049E4,2.052E3,3.045E3,6.9175E4,2.9582E4,1.83404E5,3.4301E4,1.541371E6,1.043118E6,1.01218E5,4.76748E5,4.4202E4,1.04694E5,1.64425E5,2.3955E4,2.331E4,9.523E4,3.351E4,3.0709E4,1.6437E4,3.14E2,1.6561E4,2.103E3,1.162E3,4E3,1.87314E5,9.2476E4,5.1587E4,5.3633E4,5.551E3,8.59E2,1.097E3,1.292E3,2.2672E4,2.1111E4,2.6988E4,5.989E3,1.6547E4,2.966E3,4.744E3,5.066E3,1.9125E4,1.134E4,2.276E3,1.103E3,1.6085E4,6.247E3,1.404E3,1.024E3,9.2E2,3.015E3,6.801E3,3.1E2,1.133E3,3.125E3,3.35E2,4.52E2,1.021E3,7.76E2,6.314E3,8.664E3,1.0936E4,8.509E3,1.2534E4,1.818E3,3.07E2,2.225E3,6.33E3,9.62E2,3.883E3,1.763E3,3.44E2,5.03E2,4.95E2,6.01E2,2.425E3,2.996E3,1.26E3,5.71E2,1.103E3,1.282E3,6.79E2,2.804E3,4.49E2,5.59E2,4.37E2,3.42E2,5.796E3,8.66E2,1.599E3,8.85E2,2.941E3,3.553E3,5.2E2,2.75E3,5.18E2,1.017E3,8.2E2,4.42E2,6.35E2,1.815E3,1.854E3,6.3E2,3.17E2,5.61E2,3.63E2,7.58E2,3.02E2,1.079E3,1.435E3,3.19E2,1.803E3,4.3E2,3.41E2,6.69E2],"tree_param":{"num_deleted":"0","num_feature":"61","num_nodes":"301","size_leaf_vector":"1"}},{"base_weights":[2.1959151E-5,-3.716858E-2,8.372747E0,-6.792898E-2,1.3024129E0,5.961867E0,2.870724E1,-1.0079795E-1,2.1068217E-1,9.6315753E-1,1.9963139E0,4.7198944E0,1.3285474E1,7.535523E1,7.400399E0,1.8094806E-1,-1.22452885E-1,8.593531E-2,4.1769806E-1,9.03654E-1,2.0818844E0,1.8824056E0,4.1061897E0,3.3580446E0,5.426297E0,3.5691526E0,8.898751E0,9.275724E0,5.735719E0,4.523919E0,1.2295921E0,3.6086926E-1,3.5205003E-2,-1.3905704E-1,1.0301745E-2,3.125429E-2,2.728015E-1,2.737528E-1,6.7345303E-1,7.7843446E-1,1.3326117E0,1.418722E0,2.5883408E0,1.6757964E0,2.3652856E0,3.0324264E0,5.6583734E0,3.1675818E0,5.338617E-1,4.841951E0,7.437014E0,7.412465E0,1.8989916E0,5.7869825E0,2.3312497E-1,2.8114408E-1,2.275077E0,5.4217225E-1,-7.756166E-2,-1.5408158E-1,-8.0344304E-2,-2.9864697E-2,9.759893E-2,